{"learner":{"attributes":{"best_iteration":"9","best_score":"0.9999540179464584","scikit_learn":"{\"_estimator_type\": \"classifier\"}"},"feature_names":[],"feature_types":[],"gradient_booster":{"model":{"gbtree_model_param":{"num_parallel_tree":"1","num_trees":"40"},"iteration_indptr":[0,1,2,3,4,5,6,7,8,9,10,11,12,13,14,15,16,17,18,19,20,21,22,23,24,25,26,27,28,29,30,31,32,33,34,35,36,37,38,39,40],"tree_info":[0,0,0,0,0,0,0,0,0,0,0,0,0,0,0,0,0,0,0,0,0,0,0,0,0,0,0,0,0,0,0,0,0,0,0,0,0,0,0,0],"trees":[{"base_weights":[1.9002661E-2,-1.4981735E-1,1.4081439E0,-1.4568071E-1,1.4930463E0,3.3026683E-1,7.49557E-2,4.8392545E-2,-1.555705E-1,2.2897584E-2,-4.598647E-2],"categories":[],"categories_nodes":[],"categories_segments":[],"categories_sizes":[],"default_left":[0,0,0,0,0,0,0,0,0,0,0],"id":0,"left_children":[1,-1,3,-1,5,7,-1,-1,9,-1,-1],"loss_changes":[1.1296428E4,0E0,6.8167505E2,0E0,1.2102539E1,3.5684526E0,0E0,0E0,3.695645E0,0E0,0E0],"parents":[2147483647,0,0,2,2,4,4,5,5,8,8],"right_children":[2,-1,4,-1,6,8,-1,-1,10,-1,-1],"split_conditions":[3.9513105E-1,-1.4981735E-1,-6.3271254E-1,-1.4568071E-1,4.109748E-1,-6.667588E-1,7.49557E-2,4.8392545E-2,-1.8279402E-1,2.2897584E-2,-4.598647E-2],"split_indices":[1,0,0,0,1,6,0,0,8,0,0],"split_type":[0,0,0,0,0,0,0,0,0,0,0],"sum_hessian":[2.6948823E3,8.4955676E2,1.8453254E3,3.488894E1,1.8104365E3,9.77167E0,1.8006649E3,3.8858337E0,5.8858366E0,3.414376E0,2.4714606E0],"tree_param":{"num_deleted":"0","num_feature":"23","num_nodes":"11","size_leaf_vector":"1"}},{"base_weights":[3.7602473E-2,-1.3592793E-1,1.3751312E0,-1.3259457E-1,1.456575E0,4.0830117E-1,7.3125415E-2,-5.804346E-2,5.728668E-2,-7.6187444E-1,4.157531E-2,-6.465626E-2,-0E0],"categories":[],"categories_nodes":[],"categories_segments":[],"categories_sizes":[],"default_left":[0,0,0,0,0,0,0,0,0,0,0,0,0],"id":1,"left_children":[1,-1,3,-1,5,7,-1,9,-1,11,-1,-1,-1],"loss_changes":[1.0060316E4,0E0,6.0636206E2,0E0,1.0421143E1,4.1720295E0,0E0,5.627955E0,0E0,2.103697E0,0E0,0E0,0E0],"parents":[2147483647,0,0,2,2,4,4,5,5,7,7,9,9],"right_children":[2,-1,4,-1,6,8,-1,10,-1,12,-1,-1,-1],"split_conditions":[3.9513105E-1,-1.3592793E-1,-6.6608375E-1,-1.3259457E-1,4.109748E-1,-3.6935627E-1,7.3125415E-2,9.4314814E-1,5.728668E-2,9.520175E-2,4.157531E-2,-6.465626E-2,-0E0],"split_indices":[1,0,0,0,1,2,0,0,0,8,0,0,0],"split_type":[0,0,0,0,0,0,0,0,0,0,0,0,0],"sum_hessian":[2.727025E3,8.906374E2,1.8363875E3,3.5753456E1,1.800634E3,1.0621942E1,1.7900121E3,6.9882984E0,3.6336434E0,4.0443025E0,2.943996E0,2.0090654E0,2.0352373E0],"tree_param":{"num_deleted":"0","num_feature":"23","num_nodes":"13","size_leaf_vector":"1"}},{"base_weights":[3.8022501E-3,-1.2500511E-1,1.338711E0,-1.8834695E0,1.4180547E0,-0E0,-1.0067021E-1,4.4386068E-1,7.1151145E-2,-1.0515285E-1,4.365796E-2,-3.914427E-2,3.1222869E-2],"categories":[],"categories_nodes":[],"categories_segments":[],"categories_sizes":[],"default_left":[0,0,0,0,0,0,0,0,0,0,0,0,0],"id":2,"left_children":[1,-1,3,5,7,-1,-1,9,-1,11,-1,-1,-1],"loss_changes":[8.936232E3,0E0,4.4846484E2,1.0504059E1,7.422119E0,0E0,0E0,2.5712655E0,0E0,3.1074789E0,0E0,0E0,0E0],"parents":[2147483647,0,0,2,2,3,3,4,4,7,7,9,9],"right_children":[2,-1,4,6,8,-1,-1,10,-1,12,-1,-1,-1],"split_conditions":[3.9513105E-1,-1.2500511E-1,-1.3932126E0,-6.279196E-1,4.109748E-1,-0E0,-1.0067021E-1,-7.872259E-1,7.1151145E-2,-4.8387727E-1,4.365796E-2,-3.914427E-2,3.1222869E-2],"split_indices":[1,0,21,3,1,0,0,5,0,3,0,0,0],"split_type":[0,0,0,0,0,0,0,0,0,0,0,0,0],"sum_hessian":[2.6715642E3,9.286802E2,1.742884E3,4.1309E1,1.7015751E3,2.693427E0,3.861557E1,9.194082E0,1.692381E3,4.2636204E0,4.930462E0,2.2435942E0,2.0200264E0],"tree_param":{"num_deleted":"0","num_feature":"23","num_nodes":"13","size_leaf_vector":"1"}},{"base_weights":[2.3113556E-2,-1.1618628E-1,1.3146559E0,-1.1658098E-1,1.3948158E0,4.8243824E-1,7.001584E-2,7.520002E-1,-1.7073737E-2,7.3833833E-3,4.670688E-2],"categories":[],"categories_nodes":[],"categories_segments":[],"categories_sizes":[],"default_left":[0,0,0,0,0,0,0,0,0,0,0],"id":3,"left_children":[1,-1,3,-1,5,7,-1,9,-1,-1,-1],"loss_changes":[8.0507964E3,0E0,5.0392798E2,0E0,7.5529785E0,2.8931272E0,0E0,7.6747036E-1,0E0,0E0,0E0],"parents":[2147483647,0,0,2,2,4,4,5,5,7,7],"right_children":[2,-1,4,-1,6,8,-1,10,-1,-1,-1],"split_conditions":[3.9513105E-1,-1.1618628E-1,-6.6608375E-1,-1.1658098E-1,4.109748E-1,4.6519738E-2,7.001584E-2,-7.878144E-1,-1.7073737E-2,7.3833833E-3,4.670688E-2],"split_indices":[1,0,0,0,1,10,0,5,0,0,0],"split_type":[0,0,0,0,0,0,0,0,0,0,0],"sum_hessian":[2.65414E3,9.4184784E2,1.7122921E3,3.620233E1,1.6760897E3,1.0685441E1,1.6654043E3,8.208497E0,2.4769437E0,2.447492E0,5.7610054E0],"tree_param":{"num_deleted":"0","num_feature":"23","num_nodes":"11","size_leaf_vector":"1"}},{"base_weights":[3.460693E-2,-2.1375608E0,5.3851956E-1,-1.08936705E-1,-1.7186227E0,6.124154E-1,1.7139821E-1,-4.0869154E-2,-1.7777576E0,5.3054184E-1,6.8296514E-2,8.1451334E-2,5.822127E-1,-8.4862393E-1,-1.8518362E0,2.5406742E-1,6.25131E-1,1.0717794E-1,-9.105207E-1,7.4006E-1,-9.563805E-2,2.9125558E-3,-7.378355E-2,-1.9445547E0,-9.3994176E-1,1.0749568E-1,5.057105E-1,6.827449E-2,5.060267E-1,-2.848039E-1,1.7562671E-1,7.7130804E-3,-7.267597E-2,-6.2026665E-2,8.130811E-1,-4.2330615E-2,1.8495587E-1,-4.7076713E-2,-1.0073984E-1,-9.3239633E-4,-7.629695E-2,-1.05448744E-4,2.2972101E-2,-1.148596E-2,2.776937E-2,1.1601994E-2,3.3579662E-2,2.2156055E-4,-3.4640502E-2,1.1092304E-2,-2.1342477E-2,-2.4269758E-2,1.6973184E-2,4.374036E-2,-4.666953E-3,2.1424646E-2,-2.4269758E-2],"categories":[],"categories_nodes":[],"categories_segments":[],"categories_sizes":[],"default_left":[0,0,0,0,0,0,0,0,0,0,0,0,0,0,0,0,0,0,0,0,0,0,0,0,0,0,0,0,0,0,0,0,0,0,0,0,0,0,0,0,0,0,0,0,0,0,0,0,0,0,0,0,0,0,0,0,0],"id":4,"left_children":[1,3,5,-1,7,9,11,-1,13,15,-1,17,19,21,23,25,27,29,31,33,35,-1,-1,37,39,41,43,-1,45,47,49,-1,-1,51,53,-1,55,-1,-1,-1,-1,-1,-1,-1,-1,-1,-1,-1,-1,-1,-1,-1,-1,-1,-1,-1,-1],"loss_changes":[2.8857083E3,4.428955E0,5.787268E1,0E0,9.188385E-1,1.0895032E2,1.3195859E1,0E0,1.2818909E0,4.1806274E1,0E0,7.593066E0,7.018923E0,3.2395766E0,1.3573761E0,1.507559E1,1.0468945E2,7.8292713E0,4.697033E0,3.1956139E0,2.9447412E0,0E0,0E0,3.6177063E-1,2.962873E0,1.0145334E1,5.679554E0,0E0,4.661313E1,5.185005E0,6.980518E0,0E0,0E0,1.061338E0,2.8582077E0,0E0,1.8557016E0,0E0,0E0,0E0,0E0,0E0,0E0,0E0,0E0,0E0,0E0,0E0,0E0,0E0,0E0,0E0,0E0,0E0,0E0,0E0,0E0],"parents":[2147483647,0,0,1,1,2,2,4,4,5,5,6,6,8,8,9,9,11,11,12,12,13,13,14,14,15,15,16,16,17,17,18,18,19,19,20,20,23,23,24,24,25,25,26,26,28,28,29,29,30,30,33,33,34,34,36,36],"right_children":[2,4,6,-1,8,10,12,-1,14,16,-1,18,20,22,24,26,28,30,32,34,36,-1,-1,38,40,42,44,-1,46,48,50,-1,-1,52,54,-1,56,-1,-1,-1,-1,-1,-1,-1,-1,-1,-1,-1,-1,-1,-1,-1,-1,-1,-1,-1,-1],"split_conditions":[-1.3932126E0,-6.6608375E-1,1.4822761E0,-1.08936705E-1,-1.0926191E0,8.996844E-1,-1.1480742E-1,-4.0869154E-2,-1.3759489E0,-2.6129976E-1,6.8296514E-2,1.9706504E0,2.3488687E-1,-7.886044E-1,1.6634207E0,-3.6935627E-1,3.072653E-1,-1.0781474E0,-5.231847E-1,-7.9232574E-1,-5.9289706E-1,2.9125558E-3,-7.378355E-2,-7.9219496E-1,-5.2889115E-1,1.7149131E0,-1.510832E0,6.827449E-2,3.0904895E-1,-7.1112436E-1,1.5008781E0,7.7130804E-3,-7.267597E-2,-3.999129E-1,9.28583E-1,-4.2330615E-2,8.0925965E-1,-4.7076713E-2,-1.0073984E-1,-9.3239633E-4,-7.629695E-2,-1.05448744E-4,2.2972101E-2,-1.148596E-2,2.776937E-2,1.1601994E-2,3.3579662E-2,2.2156055E-4,-3.4640502E-2,1.1092304E-2,-2.1342477E-2,-2.4269758E-2,1.6973184E-2,4.374036E-2,-4.666953E-3,2.1424646E-2,-2.4269758E-2],"split_indices":[21,0,9,0,3,9,11,0,6,9,0,5,3,5,5,2,9,6,4,5,8,0,0,5,0,16,6,0,9,5,8,0,0,3,4,0,4,0,0,0,0,0,0,0,0,0,0,0,0,0,0,0,0,0,0,0,0],"split_type":[0,0,0,0,0,0,0,0,0,0,0,0,0,0,0,0,0,0,0,0,0,0,0,0,0,0,0,0,0,0,0,0,0,0,0,0,0,0,0,0,0,0,0,0,0,0,0,0,0,0,0,0,0,0,0,0,0],"sum_hessian":[2.634449E3,4.9542554E2,2.1390234E3,4.4705002E2,4.8375496E1,1.7798308E3,3.5919257E2,3.995524E0,4.4379974E1,1.6070526E3,1.7277823E2,2.9585703E2,6.333553E1,4.2965064E0,4.0083466E1,4.1086874E2,1.1961838E3,2.8934567E2,6.511361E0,5.1417885E1,1.1917643E1,2.061974E0,2.2345326E0,3.525659E1,4.8268733E0,2.6079242E2,1.5007631E2,1.6420059E2,1.0319833E3,4.2327766E1,2.470179E2,2.378681E0,4.13268E0,4.188725E0,4.722916E1,2.789927E0,9.127716E0,3.3433332E0,3.191326E1,2.3440595E0,2.4828138E0,1.9940327E2,6.1389156E1,9.139252E0,1.4093706E2,3.8984927E2,6.42134E2,2.5204424E1,1.7123343E1,2.3015887E2,1.6859032E1,2.0583253E0,2.1303995E0,4.4353916E1,2.8752437E0,7.069391E0,2.0583253E0],"tree_param":{"num_deleted":"0","num_feature":"23","num_nodes":"57","size_leaf_vector":"1"}},{"base_weights":[3.554764E-2,-1.0648646E-1,1.2760532E0,-1.0357884E-1,1.3559823E0,3.0677602E-1,6.810667E-2,-1.9377257E-1,5.4539688E-2,-8.682666E-1,4.7565393E-2,-0E0,-6.9694415E-2],"categories":[],"categories_nodes":[],"categories_segments":[],"categories_sizes":[],"default_left":[0,0,0,0,0,0,0,0,0,0,0,0,0],"id":5,"left_children":[1,-1,3,-1,5,7,-1,9,-1,11,-1,-1,-1],"loss_changes":[7.0537803E3,0E0,4.494795E2,0E0,9.943359E0,4.576086E0,0E0,6.5485063E0,0E0,2.3442764E0,0E0,0E0,0E0],"parents":[2147483647,0,0,2,2,4,4,5,5,7,7,9,9],"right_children":[2,-1,4,-1,6,8,-1,10,-1,12,-1,-1,-1],"split_conditions":[3.9513105E-1,-1.0648646E-1,-6.6608375E-1,-1.0357884E-1,4.109748E-1,-3.6935627E-1,6.810667E-2,9.4314814E-1,5.4539688E-2,-3.7607917E-1,4.7565393E-2,-0E0,-6.9694415E-2],"split_indices":[1,0,0,0,1,2,0,0,0,6,0,0,0],"split_type":[0,0,0,0,0,0,0,0,0,0,0,0,0],"sum_hessian":[2.6241116E3,9.555031E2,1.6686084E3,3.8300938E1,1.6303075E3,9.89346E0,1.6204141E3,6.4199824E0,3.4734776E0,4.2472625E0,2.17272E0,2.0046668E0,2.2425957E0],"tree_param":{"num_deleted":"0","num_feature":"23","num_nodes":"13","size_leaf_vector":"1"}},{"base_weights":[3.3273917E-2,-9.616911E-2,5.026486E-1,5.736835E-1,1.5383974E-1,4.9613595E-1,6.589133E-2,8.49696E-2,4.734141E-1,2.314977E-1,5.903984E-1,1.3386434E-1,-1.8149038E-1,7.3028535E-1,-5.4015764E-3,1.4833337E-1,4.948149E-1,6.586966E-2,4.77342E-1,9.632161E-2,6.207963E-1,-0E0,-7.183401E-2,8.3050424E-1,6.575593E-2,-2.863281E-1,7.2157097E-1,6.201843E-4,2.2154244E-2,2.8711742E-2,-5.060839E-4,1.1247459E-2,3.1676453E-2,1.3478558E-2,-1.6084354E-5,4.021301E-2,-2.3541963E-2,-3.604285E-2,1.25515405E-2,4.9063023E-2,-8.50286E-3,-2.9975621E-2,4.5379188E-2,-3.1690545E-2,4.1366253E-2,7.0278547E-3,4.951137E-2],"categories":[],"categories_nodes":[],"categories_segments":[],"categories_sizes":[],"default_left":[0,0,0,0,0,0,0,0,0,0,0,0,0,0,0,0,0,0,0,0,0,0,0,0,0,0,0,0,0,0,0,0,0,0,0,0,0,0,0,0,0,0,0,0,0,0,0],"id":6,"left_children":[1,-1,3,5,7,9,-1,11,13,15,17,19,21,23,25,27,29,-1,31,33,35,37,-1,39,41,43,45,-1,-1,-1,-1,-1,-1,-1,-1,-1,-1,-1,-1,-1,-1,-1,-1,-1,-1,-1,-1],"loss_changes":[2.3532505E3,0E0,5.104663E1,9.821301E1,7.6352053E0,3.8600067E1,0E0,3.8039389E0,7.6779556E0,8.854614E0,9.342554E1,4.3715444E0,1.0153909E1,2.544199E0,4.7451167E0,1.2521053E1,3.9860477E0,0E0,3.8951782E1,3.8791554E0,3.8684158E0,7.553052E0,0E0,5.5064545E0,4.2190404E0,7.0827227E0,7.5272346E-1,0E0,0E0,0E0,0E0,0E0,0E0,0E0,0E0,0E0,0E0,0E0,0E0,0E0,0E0,0E0,0E0,0E0,0E0,0E0,0E0],"parents":[2147483647,0,0,2,2,3,3,4,4,5,5,7,7,8,8,9,9,10,10,11,11,12,12,13,13,14,14,15,15,16,16,18,18,19,19,20,20,21,21,23,23,24,24,25,25,26,26],"right_children":[2,-1,4,6,8,10,-1,12,14,16,18,20,22,24,26,28,30,-1,32,34,36,38,-1,40,42,44,46,-1,-1,-1,-1,-1,-1,-1,-1,-1,-1,-1,-1,-1,-1,-1,-1,-1,-1,-1,-1],"split_conditions":[-1.3932126E0,-9.616911E-2,1.4822761E0,8.996844E-1,-1.1480742E-1,-2.6129976E-1,6.589133E-2,1.3781592E0,-1.2663319E-2,-2.9830614E-1,3.072653E-1,1.1171156E0,2.6433268E-1,-2.868647E-1,1.7149131E0,1.7149131E0,-1.1480742E-1,6.586966E-2,3.0904895E-1,-5.9245193E-1,1.3002081E0,-1.0238552E0,-7.183401E-2,1.2051704E0,1.124276E0,5.91418E-1,1.18303016E-1,6.201843E-4,2.2154244E-2,2.8711742E-2,-5.060839E-4,1.1247459E-2,3.1676453E-2,1.3478558E-2,-1.6084354E-5,4.021301E-2,-2.3541963E-2,-3.604285E-2,1.25515405E-2,4.9063023E-2,-8.50286E-3,-2.9975621E-2,4.5379188E-2,-3.1690545E-2,4.1366253E-2,7.0278547E-3,4.951137E-2],"split_indices":[21,0,9,9,11,9,0,5,3,20,9,5,8,19,16,16,11,0,9,3,14,3,0,8,8,5,6,0,0,0,0,0,0,0,0,0,0,0,0,0,0,0,0,0,0,0,0],"split_type":[0,0,0,0,0,0,0,0,0,0,0,0,0,0,0,0,0,0,0,0,0,0,0,0,0,0,0,0,0,0,0,0,0,0,0,0,0,0,0,0,0,0,0,0,0,0,0],"sum_hessian":[2.560426E3,4.9473615E2,2.06569E3,1.7154143E3,3.5027557E2,1.5551521E3,1.6026219E2,2.8947156E2,6.080401E1,4.0963483E2,1.1455172E3,2.4532748E2,4.4144073E1,3.936789E1,2.1436115E1,3.127888E2,9.684602E1,1.5261417E2,9.929031E2,2.2906929E2,1.6258194E1,3.950424E1,4.639833E0,3.3861004E1,5.5068865E0,1.59977455E1,5.4383707E0,2.1501317E2,9.7775635E1,8.373621E1,1.3109812E1,3.807328E2,6.121703E2,8.175498E1,1.4731432E2,1.4222732E1,2.0354612E0,9.81341E0,2.969083E1,2.9530788E1,4.3302164E0,3.170445E0,2.3364415E0,1.2590055E1,3.40769E0,2.3188605E0,3.1195104E0],"tree_param":{"num_deleted":"0","num_feature":"23","num_nodes":"47","size_leaf_vector":"1"}},{"base_weights":[2.5887294E-2,-1.9830724E0,1.2443045E0,-9.311342E-2,-1.043235E-1,-9.4259635E-2,1.3232329E0,1.234308E-1,6.648468E-2,-5.467206E-1,5.278931E-2,-5.607419E-2,1.5698066E-2],"categories":[],"categories_nodes":[],"categories_segments":[],"categories_sizes":[],"default_left":[0,0,0,0,0,0,0,0,0,0,0,0,0],"id":7,"left_children":[1,3,5,-1,-1,-1,7,9,-1,11,-1,-1,-1],"loss_changes":[6.2234688E3,7.7089844E0,3.9337354E2,0E0,0E0,0E0,1.1662109E1,6.536918E0,0E0,3.4497104E0,0E0,0E0,0E0],"parents":[2147483647,0,0,1,1,2,2,6,6,7,7,9,9],"right_children":[2,4,6,-1,-1,-1,8,10,-1,12,-1,-1,-1],"split_conditions":[3.9513105E-1,-2.802401E-1,-6.3271254E-1,-9.311342E-2,-1.043235E-1,-9.4259635E-2,4.109748E-1,-3.6935627E-1,6.648468E-2,9.0606904E-1,5.278931E-2,-5.607419E-2,1.5698066E-2],"split_indices":[1,9,0,0,0,0,1,2,0,0,0,0,0],"split_type":[0,0,0,0,0,0,0,0,0,0,0,0,0],"sum_hessian":[2.540547E3,9.588535E2,1.5816936E3,4.5141818E2,5.074353E2,3.8316097E1,1.5433776E3,8.4568E0,1.5349207E3,5.0984983E0,3.3583019E0,2.9449983E0,2.1535E0],"tree_param":{"num_deleted":"0","num_feature":"23","num_nodes":"13","size_leaf_vector":"1"}},{"base_weights":[3.5020225E-2,-1.8890412E0,1.225663E0,-8.926878E-2,-9.891797E-2,-9.0074636E-2,1.3015461E0,1.8566354E-1,6.5399185E-2,-2.7391267E-1,4.9861677E-2,-3.6679775E-2,1.358258E-2],"categories":[],"categories_nodes":[],"categories_segments":[],"categories_sizes":[],"default_left":[0,0,0,0,0,0,0,0,0,0,0,0,0],"id":8,"left_children":[1,3,5,-1,-1,-1,7,9,-1,11,-1,-1,-1],"loss_changes":[5.7217407E3,4.9316406E0,3.567151E2,0E0,0E0,0E0,1.0424561E1,4.0348043E0,0E0,2.0062819E0,0E0,0E0,0E0],"parents":[2147483647,0,0,1,1,2,2,6,6,7,7,9,9],"right_children":[2,4,6,-1,-1,-1,8,10,-1,12,-1,-1,-1],"split_conditions":[3.9513105E-1,-2.802401E-1,-6.6608375E-1,-8.926878E-2,-9.891797E-2,-9.0074636E-2,4.109748E-1,-3.6935627E-1,6.5399185E-2,3.2427338E-1,4.9861677E-2,-3.6679775E-2,1.358258E-2],"split_indices":[1,9,0,0,0,0,1,2,0,4,0,0,0],"split_type":[0,0,0,0,0,0,0,0,0,0,0,0,0],"sum_hessian":[2.4956462E3,9.537422E2,1.541904E3,4.5165027E2,5.0209192E2,3.711811E1,1.504786E3,8.891508E0,1.4958945E3,6.0211315E0,2.8703766E0,3.180196E0,2.8409355E0],"tree_param":{"num_deleted":"0","num_feature":"23","num_nodes":"13","size_leaf_vector":"1"}},{"base_weights":[2.846009E-2,-1.8077183E0,1.2108598E0,-8.591043E-2,-9.432721E-2,-8.622685E-2,1.2824436E0,2.1944399E-1,6.4454734E-2,6.052235E-1,-3.797856E-2,-1.2874591E-2,4.9100783E-2],"categories":[],"categories_nodes":[],"categories_segments":[],"categories_sizes":[],"default_left":[0,0,0,0,0,0,0,0,0,0,0,0,0],"id":9,"left_children":[1,3,5,-1,-1,-1,7,9,-1,11,-1,-1,-1],"loss_changes":[5.235694E3,3.0629883E0,3.1041528E2,0E0,0E0,0E0,9.695068E0,4.299219E0,0E0,2.9100657E0,0E0,0E0,0E0],"parents":[2147483647,0,0,1,1,2,2,6,6,7,7,9,9],"right_children":[2,4,6,-1,-1,-1,8,10,-1,12,-1,-1,-1],"split_conditions":[3.9513105E-1,-2.802401E-1,-6.6608375E-1,-8.591043E-2,-9.432721E-2,-8.622685E-2,4.109748E-1,4.6519738E-2,6.4454734E-2,-7.878144E-1,-3.797856E-2,-1.2874591E-2,4.9100783E-2],"split_indices":[1,9,0,0,0,0,1,10,0,5,0,0,0],"split_type":[0,0,0,0,0,0,0,0,0,0,0,0,0],"sum_hessian":[2.409563E3,9.436036E2,1.4659594E3,4.531276E2,4.9047598E2,3.4315517E1,1.4316438E3,9.206797E0,1.422437E3,6.9515114E0,2.2552857E0,2.1287286E0,4.8227825E0],"tree_param":{"num_deleted":"0","num_feature":"23","num_nodes":"13","size_leaf_vector":"1"}},{"base_weights":[2.535179E-2,-1.7384372E0,1.1895275E0,-8.29372E-2,-9.0308584E-2,-1.2202953E0,1.2571436E0,-1.3598232E0,-7.7599823E-1,2.670624E-1,6.3129656E-2,-6.853981E-1,-1.458108E0,-9.9599963E-1,8.602779E-3,6.891061E-1,-2.445664E-2,-4.217354E-2,-1.2150931E-2,-2.3387512E-2,-7.742651E-2,-1.3596951E-2,-6.943648E-2,4.817136E-2,1.1233884E-2],"categories":[],"categories_nodes":[],"categories_segments":[],"categories_sizes":[],"default_left":[0,0,0,0,0,0,0,0,0,0,0,0,0,0,0,0,0,0,0,0,0,0,0,0,0],"id":10,"left_children":[1,3,5,-1,-1,7,9,11,13,15,-1,17,19,21,-1,23,-1,-1,-1,-1,-1,-1,-1,-1,-1],"loss_changes":[4.8370786E3,1.713623E0,2.3276819E2,0E0,0E0,1.1611519E0,6.960449E0,6.641121E-1,2.7291746E0,3.2062776E0,0E0,7.935405E-2,1.1972618E0,2.2617426E0,0E0,4.5841455E-1,0E0,0E0,0E0,0E0,0E0,0E0,0E0,0E0,0E0],"parents":[2147483647,0,0,1,1,2,2,5,5,6,6,7,7,8,8,9,9,11,11,12,12,13,13,15,15],"right_children":[2,4,6,-1,-1,8,10,12,14,16,-1,18,20,22,-1,24,-1,-1,-1,-1,-1,-1,-1,-1,-1],"split_conditions":[3.9513105E-1,-2.802401E-1,-1.3932126E0,-8.29372E-2,-9.0308584E-2,9.7749853E-1,4.109748E-1,-7.919988E-1,6.383406E-1,4.6519738E-2,6.3129656E-2,-7.9291415E-1,-1.3759489E0,5.791623E-1,8.602779E-3,-6.667588E-1,-2.445664E-2,-4.217354E-2,-1.2150931E-2,-2.3387512E-2,-7.742651E-2,-1.3596951E-2,-6.943648E-2,4.817136E-2,1.1233884E-2],"split_indices":[1,9,21,0,0,5,1,5,6,10,0,5,6,1,0,6,0,0,0,0,0,0,0,0,0],"split_type":[0,0,0,0,0,0,0,0,0,0,0,0,0,0,0,0,0,0,0,0,0,0,0,0,0],"sum_hessian":[2.3537087E3,9.3561804E2,1.4180908E3,4.4225186E2,4.9336615E2,3.8197926E1,1.379893E3,2.73296E1,1.0868324E1,7.9275856E0,1.3719653E3,4.619802E0,2.2709799E1,8.865858E0,2.002467E0,5.229747E0,2.6978388E0,2.5690882E0,2.050714E0,2.5089676E0,2.020083E1,3.8024654E0,5.063392E0,2.4769483E0,2.7527986E0],"tree_param":{"num_deleted":"0","num_feature":"23","num_nodes":"25","size_leaf_vector":"1"}},{"base_weights":[2.7382702E-2,-1.5823656E0,4.4213963E-1,-8.036701E-2,-1.3148574E0,5.098043E-1,1.2454925E-1,-2.5209365E-2,-1.3515174E0,4.4023567E-1,6.1291784E-2,1.4562935E-1,-6.911272E-1,-1.3924774E0,-3.3016454E-2,1.9710033E-1,5.258574E-1,8.9503095E-2,4.0020052E-1,6.000818E-3,-5.681315E-2,-7.3310755E-2,-8.070339E-1,-3.4340003E-1,2.3448104E-1,6.1289866E-2,4.2065567E-1,1.077101E-1,-7.997807E-1,-3.9559588E-1,5.0111115E-1,-6.332695E-2,2.994018E-3,-2.3365557E-2,2.3019647E-2,6.8406886E-3,2.0642491E-2,9.683183E-3,2.8229073E-2,3.7339998E-3,2.5965413E-2,-5.9190013E-2,-4.563711E-3,-2.007994E-3,-3.9382443E-2,2.958464E-2,-1.2313902E-2],"categories":[],"categories_nodes":[],"categories_segments":[],"categories_sizes":[],"default_left":[0,0,0,0,0,0,0,0,0,0,0,0,0,0,0,0,0,0,0,0,0,0,0,0,0,0,0,0,0,0,0,0,0,0,0,0,0,0,0,0,0,0,0,0,0,0,0],"id":11,"left_children":[1,3,5,-1,7,9,11,-1,13,15,-1,17,19,21,-1,23,25,27,29,-1,-1,-1,31,33,35,-1,37,39,41,43,45,-1,-1,-1,-1,-1,-1,-1,-1,-1,-1,-1,-1,-1,-1,-1,-1],"loss_changes":[1.5283179E3,7.27417E-1,3.8989746E1,0E0,4.9654388E-1,7.401233E1,5.570457E0,0E0,9.77478E-2,2.8319916E1,0E0,4.4036417E0,3.1801882E0,3.0439758E-1,0E0,7.3109055E0,7.379608E1,4.2104483E0,4.7168875E0,0E0,0E0,0E0,2.9132814E0,2.5480766E0,5.741701E0,0E0,2.8594437E1,3.365786E0,1.180567E0,8.282535E-1,3.590499E0,0E0,0E0,0E0,0E0,0E0,0E0,0E0,0E0,0E0,0E0,0E0,0E0,0E0,0E0,0E0,0E0],"parents":[2147483647,0,0,1,1,2,2,4,4,5,5,6,6,8,8,9,9,11,11,12,12,13,13,15,15,16,16,17,17,18,18,22,22,23,23,24,24,26,26,27,27,28,28,29,29,30,30],"right_children":[2,4,6,-1,8,10,12,-1,14,16,-1,18,20,22,-1,24,26,28,30,-1,-1,-1,32,34,36,-1,38,40,42,44,46,-1,-1,-1,-1,-1,-1,-1,-1,-1,-1,-1,-1,-1,-1,-1,-1],"split_conditions":[-1.3932126E0,-6.6608375E-1,1.4822761E0,-8.036701E-2,-1.7164185E0,8.996844E-1,1.9706504E0,-2.5209365E-2,-3.6935627E-1,-2.6129976E-1,6.1291784E-2,-1.1480742E-1,-4.4891065E-1,1.6634207E0,-3.3016454E-2,-1.7164185E0,3.072653E-1,4.019914E0,-7.9219496E-1,6.000818E-3,-5.681315E-2,-7.3310755E-2,6.366131E-1,1.2037233E0,-3.6152524E-1,6.1289866E-2,3.0904895E-1,9.6595615E-1,4.6519738E-2,9.8008937E-1,9.28583E-1,-6.332695E-2,2.994018E-3,-2.3365557E-2,2.3019647E-2,6.8406886E-3,2.0642491E-2,9.683183E-3,2.8229073E-2,3.7339998E-3,2.5965413E-2,-5.9190013E-2,-4.563711E-3,-2.007994E-3,-3.9382443E-2,2.958464E-2,-1.2313902E-2],"split_indices":[21,0,9,0,4,9,5,0,2,9,0,11,4,5,0,4,9,2,5,0,0,0,3,2,2,0,9,3,10,8,4,0,0,0,0,0,0,0,0,0,0,0,0,0,0,0,0],"split_type":[0,0,0,0,0,0,0,0,0,0,0,0,0,0,0,0,0,0,0,0,0,0,0,0,0,0,0,0,0,0,0,0,0,0,0,0,0,0,0,0,0,0,0,0,0,0,0],"sum_hessian":[2.2872085E3,4.6795038E2,1.8192582E3,4.2307037E2,4.488002E1,1.4989725E3,3.202857E2,2.6980712E0,4.2181946E1,1.3678306E3,1.3114198E2,3.1313715E2,7.1485624E0,3.872765E1,3.454296E0,3.574029E2,1.0104276E3,2.5799945E2,5.5137688E1,2.7121363E0,4.436426E0,3.2907608E1,5.820043E0,2.2416306E1,3.349866E2,1.305089E2,8.799187E2,2.5379465E2,4.2048073E0,5.7647514E0,4.9372936E1,3.5779433E0,2.2420995E0,1.9892712E1,2.523593E0,2.179655E2,1.17021095E2,3.4261118E2,5.3730756E2,2.3625958E2,1.7535067E1,2.2002587E0,2.0045488E0,3.7355745E0,2.029177E0,4.4341034E1,5.0319023E0],"tree_param":{"num_deleted":"0","num_feature":"23","num_nodes":"47","size_leaf_vector":"1"}},{"base_weights":[2.4286417E-2,-1.6616279E0,1.1658239E0,-7.798191E-2,-8.733172E-2,-8.006406E-2,1.2426043E0,3.4778836E-1,6.24093E-2,-1.05711736E-1,5.007838E-2,1.7854506E-2,-2.2444647E-2],"categories":[],"categories_nodes":[],"categories_segments":[],"categories_sizes":[],"default_left":[0,0,0,0,0,0,0,0,0,0,0,0,0],"id":12,"left_children":[1,3,5,-1,-1,-1,7,9,-1,11,-1,-1,-1],"loss_changes":[4.3736597E3,4.8999023E0,2.8985815E2,0E0,0E0,0E0,5.994629E0,3.06389E0,0E0,1.2060453E0,0E0,0E0,0E0],"parents":[2147483647,0,0,1,1,2,2,6,6,7,7,9,9],"right_children":[2,4,6,-1,-1,-1,8,10,-1,12,-1,-1,-1],"split_conditions":[3.9513105E-1,-2.802401E-1,-6.3271254E-1,-7.798191E-2,-8.733172E-2,-8.006406E-2,4.109748E-1,-3.6935627E-1,6.24093E-2,7.3365134E-1,5.007838E-2,1.7854506E-2,-2.2444647E-2],"split_indices":[1,9,0,0,0,0,1,2,0,0,0,0,0],"split_type":[0,0,0,0,0,0,0,0,0,0,0,0,0],"sum_hessian":[2.2706E3,9.164984E2,1.3541017E3,4.259605E2,4.9053787E2,3.598737E1,1.3181143E3,8.67465E0,1.3094397E3,5.526495E0,3.1481555E0,2.2118084E0,3.3146865E0],"tree_param":{"num_deleted":"0","num_feature":"23","num_nodes":"13","size_leaf_vector":"1"}},{"base_weights":[2.2734517E-2,-1.6079983E0,1.150367E0,-7.587635E-2,-8.416134E-2,-7.761433E-2,1.2266152E0,3.6893457E-1,6.1650302E-2,-4.2136785E-2,5.0344802E-2,-3.273167E-2,3.6725234E-2],"categories":[],"categories_nodes":[],"categories_segments":[],"categories_sizes":[],"default_left":[0,0,0,0,0,0,0,0,0,0,0,0,0],"id":13,"left_children":[1,3,5,-1,-1,-1,7,9,-1,11,-1,-1,-1],"loss_changes":[4.069694E3,3.2832031E0,2.7150586E2,0E0,0E0,0E0,6.3634033E0,3.0128946E0,0E0,4.054404E0,0E0,0E0,0E0],"parents":[2147483647,0,0,1,1,2,2,6,6,7,7,9,9],"right_children":[2,4,6,-1,-1,-1,8,10,-1,12,-1,-1,-1],"split_conditions":[3.9513105E-1,-2.802401E-1,-6.3271254E-1,-7.587635E-2,-8.416134E-2,-7.761433E-2,4.109748E-1,-3.6935627E-1,6.1650302E-2,9.4314814E-1,5.0344802E-2,-3.273167E-2,3.6725234E-2],"split_indices":[1,9,0,0,0,0,1,2,0,0,0,0,0],"split_type":[0,0,0,0,0,0,0,0,0,0,0,0,0],"sum_hessian":[2.2111716E3,9.037268E2,1.3074448E3,4.20512E2,4.832148E2,3.530685E1,1.2721381E3,9.959072E0,1.262179E3,6.5291843E0,3.4298878E0,3.8101635E0,2.7190208E0],"tree_param":{"num_deleted":"0","num_feature":"23","num_nodes":"13","size_leaf_vector":"1"}},{"base_weights":[2.6796728E-2,-7.238058E-2,4.096435E-1,4.7275618E-1,1.1635845E-1,4.0670022E-1,5.9254378E-2,6.666485E-2,3.742391E-1,4.8221338E-1,2.1234044E-1,9.032874E-2,-4.91548E-1,5.380838E-1,-1.7662328E-1,3.4264383E-1,6.0410835E-2,3.2195538E-1,5.5747878E-2,1.0708918E-1,-6.3782436E-1,-4.6515886E-2,2.6057526E-2,6.4720386E-1,-5.2857254E-2,-4.717348E-1,1.5046339E-2,-4.804439E-3,1.9504832E-2,-5.6693573E-3,1.8109484E-2,1.6350506E-2,-1.8539114E-3,6.2245033E-3,-2.0498328E-2,4.6267966E-4,-5.5031013E-2,-1.4814447E-2,3.669567E-2,-2.3420272E-2,2.8138122E-2,-2.536277E-3,-4.4954382E-2],"categories":[],"categories_nodes":[],"categories_segments":[],"categories_sizes":[],"default_left":[0,0,0,0,0,0,0,0,0,0,0,0,0,0,0,0,0,0,0,0,0,0,0,0,0,0,0,0,0,0,0,0,0,0,0,0,0,0,0,0,0,0,0],"id":14,"left_children":[1,-1,3,5,7,9,-1,11,13,15,17,19,21,23,25,27,-1,29,31,33,35,-1,-1,37,39,41,-1,-1,-1,-1,-1,-1,-1,-1,-1,-1,-1,-1,-1,-1,-1,-1,-1],"loss_changes":[1.2133746E3,0E0,3.1475494E1,6.5412476E1,3.8244543E0,1.8707E1,0E0,3.3895686E0,4.512711E0,9.3182846E1,6.1593513E0,3.02809E0,5.1494417E0,2.5313606E0,1.8138314E0,1.6254852E1,0E0,3.7863426E0,3.8352027E0,2.2025821E0,1.7855699E0,0E0,0E0,2.889719E0,1.9615567E0,1.2584796E0,0E0,0E0,0E0,0E0,0E0,0E0,0E0,0E0,0E0,0E0,0E0,0E0,0E0,0E0,0E0,0E0,0E0],"parents":[2147483647,0,0,2,2,3,3,4,4,5,5,7,7,8,8,9,9,10,10,11,11,12,12,13,13,14,14,15,15,17,17,18,18,19,19,20,20,23,23,24,24,25,25],"right_children":[2,-1,4,6,8,10,-1,12,14,16,18,20,22,24,26,28,-1,30,32,34,36,-1,-1,38,40,42,-1,-1,-1,-1,-1,-1,-1,-1,-1,-1,-1,-1,-1,-1,-1,-1,-1],"split_conditions":[-1.3932126E0,-7.238058E-2,1.4822761E0,8.996844E-1,-1.1480742E-1,8.9477074E-1,5.9254378E-2,1.6750296E0,2.030383E-1,3.0904895E-1,2.2811623E-1,4.019914E0,4.6519738E-2,-2.868647E-1,1.18303016E-1,-7.921296E-1,6.0410835E-2,-1.5130216E0,-6.288229E-1,1.9706504E0,-1.8150948E-1,-4.6515886E-2,2.6057526E-2,-7.9232574E-1,8.2751375E-1,-7.2998524E-1,1.5046339E-2,-4.804439E-3,1.9504832E-2,-5.6693573E-3,1.8109484E-2,1.6350506E-2,-1.8539114E-3,6.2245033E-3,-2.0498328E-2,4.6267966E-4,-5.5031013E-2,-1.4814447E-2,3.669567E-2,-2.3420272E-2,2.8138122E-2,-2.536277E-3,-4.4954382E-2],"split_indices":[21,0,9,9,11,9,0,8,3,9,8,2,10,19,6,5,0,3,6,5,6,0,0,5,8,6,0,0,0,0,0,0,0,0,0,0,0,0,0,0,0,0,0],"split_type":[0,0,0,0,0,0,0,0,0,0,0,0,0,0,0,0,0,0,0,0,0,0,0,0,0,0,0,0,0,0,0,0,0,0,0,0,0,0,0,0,0,0,0],"sum_hessian":[2.147706E3,4.42092E2,1.7056141E3,1.4027915E3,3.0282272E2,1.2853131E3,1.1747837E2,2.552771E2,4.7545612E1,9.242325E2,3.6108063E2,2.4587138E2,9.405712E0,3.6803703E1,1.0741908E1,7.7655444E2,1.47678E2,2.1140344E2,1.4967719E2,2.413073E2,4.564084E0,6.6880774E0,2.7176352E0,3.1129505E1,5.6742E0,6.7760773E0,3.9658313E0,7.548776E1,7.010667E2,1.7520855E1,1.9388258E2,3.7792385E1,1.1188481E2,2.3437242E2,6.9348817E0,2.2216773E0,2.3424067E0,2.3195858E0,2.880992E1,3.6273084E0,2.046892E0,4.0947776E0,2.6812994E0],"tree_param":{"num_deleted":"0","num_feature":"23","num_nodes":"43","size_leaf_vector":"1"}},{"base_weights":[1.9082174E-2,-1.5372567E0,1.1406953E0,-1.5511138E0,-1.9736588E-1,-7.383217E-2,6.0696036E-2,-7.228553E-2,-8.175007E-2,2.610946E-2,-6.441876E-1,-6.517487E-2,1.3322361E-2],"categories":[],"categories_nodes":[],"categories_segments":[],"categories_sizes":[],"default_left":[0,0,0,0,0,0,0,0,0,0,0,0,0],"id":15,"left_children":[1,3,5,7,9,-1,-1,-1,-1,-1,11,-1,-1],"loss_changes":[3.673955E3,1.5885498E1,2.3620203E2,5.0405273E0,3.641734E0,0E0,0E0,0E0,0E0,0E0,4.5650644E0,0E0,0E0],"parents":[2147483647,0,0,1,1,2,2,3,3,4,4,10,10],"right_children":[2,4,6,8,10,-1,-1,-1,-1,-1,12,-1,-1],"split_conditions":[4.109748E-1,3.9513105E-1,-6.6608375E-1,-2.802401E-1,-6.667588E-1,-7.383217E-2,6.0696036E-2,-7.228553E-2,-8.175007E-2,2.610946E-2,4.9106398E-1,-6.517487E-2,1.3322361E-2],"split_indices":[1,1,0,9,6,0,0,0,0,0,4,0,0],"split_type":[0,0,0,0,0,0,0,0,0,0,0,0,0],"sum_hessian":[2.1027007E3,8.804867E2,1.222214E3,8.71244E2,9.242658E0,3.2704536E1,1.1895095E3,3.9471664E2,4.7652737E2,3.3903735E0,5.852284E0,3.2080312E0,2.6442528E0],"tree_param":{"num_deleted":"0","num_feature":"23","num_nodes":"13","size_leaf_vector":"1"}},{"base_weights":[2.8632844E-2,-1.5102836E0,1.1203086E0,-7.0714824E-2,-7.924948E-2,-7.203755E-2,1.1941334E0,2.539568E-1,6.0048956E-2,6.4914197E-1,-3.3914816E-2,1.1050815E-2,4.8928328E-2],"categories":[],"categories_nodes":[],"categories_segments":[],"categories_sizes":[],"default_left":[0,0,0,0,0,0,0,0,0,0,0,0,0],"id":16,"left_children":[1,3,5,-1,-1,-1,7,9,-1,11,-1,-1,-1],"loss_changes":[3.418243E3,3.5133057E0,2.2675171E2,0E0,0E0,0E0,7E0,4.026285E0,0E0,7.113316E-1,0E0,0E0,0E0],"parents":[2147483647,0,0,1,1,2,2,6,6,7,7,9,9],"right_children":[2,4,6,-1,-1,-1,8,10,-1,12,-1,-1,-1],"split_conditions":[3.9513105E-1,-1.3932126E0,-6.6608375E-1,-7.0714824E-2,-7.924948E-2,-7.203755E-2,4.109748E-1,4.6519738E-2,6.0048956E-2,-1.8150948E-1,-3.3914816E-2,1.1050815E-2,4.8928328E-2],"split_indices":[1,21,0,0,0,0,1,10,0,6,0,0,0],"split_type":[0,0,0,0,0,0,0,0,0,0,0,0,0],"sum_hessian":[2.032687E3,8.433526E2,1.1893345E3,3.7841336E2,4.649392E2,3.276627E1,1.1565682E3,8.741497E0,1.1478267E3,6.4277177E0,2.3137794E0,3.653736E0,2.7739813E0],"tree_param":{"num_deleted":"0","num_feature":"23","num_nodes":"13","size_leaf_vector":"1"}},{"base_weights":[2.2925586E-2,-1.3602767E0,3.7979776E-1,-6.928493E-2,-1.1096324E0,4.3857637E-1,1.1205418E-1,-1.1601253E0,-6.118187E-1,3.737515E-1,5.7591457E-2,1.2764084E-1,-7.236655E-1,-6.2089097E-2,-7.0215917E-1,7.507263E-3,-5.2778132E-2,1.496473E-1,4.5553583E-1,1.7681788E-1,-1.4420158E-1,-7.819296E-3,-4.9989127E-2,-4.752451E-2,-7.4668154E-3,4.0083755E-2,3.5253134E-1,5.791424E-2,3.593039E-1,-3.1465378E-2,1.876971E-1,-3.235936E-1,4.0893188E-1,-2.5361583E-3,1.6559875E-2,1.9129312E-2,-3.864253E-2,7.6196617E-3,2.459579E-2,6.1965054E-3,1.6163073E-2,-4.44643E-2,-8.660749E-3,-5.0848624E-4,2.916315E-2],"categories":[],"categories_nodes":[],"categories_segments":[],"categories_sizes":[],"default_left":[0,0,0,0,0,0,0,0,0,0,0,0,0,0,0,0,0,0,0,0,0,0,0,0,0,0,0,0,0,0,0,0,0,0,0,0,0,0,0,0,0,0,0,0,0],"id":17,"left_children":[1,3,5,-1,7,9,11,13,15,17,-1,19,21,-1,23,-1,-1,25,27,29,31,-1,-1,-1,-1,33,35,-1,37,-1,39,41,43,-1,-1,-1,-1,-1,-1,-1,-1,-1,-1,-1,-1],"loss_changes":[9.707387E2,7.826538E-1,2.4499802E1,0E0,1.818161E-1,5.8660217E1,3.7202153E0,3.287964E-1,2.3500454E0,2.142836E1,0E0,3.7567601E0,5.449555E-1,0E0,8.6443615E-1,0E0,0E0,6.9771833E0,5.7650925E1,2.1516428E0,4.38651E0,0E0,0E0,0E0,0E0,5.5122514E0,3.9927835E0,0E0,2.0680374E1,0E0,1.9436207E0,2.558293E0,8.5419095E-1,0E0,0E0,0E0,0E0,0E0,0E0,0E0,0E0,0E0,0E0,0E0,0E0],"parents":[2147483647,0,0,1,1,2,2,4,4,5,5,6,6,7,7,8,8,9,9,11,11,12,12,14,14,17,17,18,18,19,19,20,20,25,25,26,26,28,28,30,30,31,31,32,32],"right_children":[2,4,6,-1,8,10,12,14,16,18,-1,20,22,-1,24,-1,-1,26,28,30,32,-1,-1,-1,-1,34,36,-1,38,-1,40,42,44,-1,-1,-1,-1,-1,-1,-1,-1,-1,-1,-1,-1],"split_conditions":[-1.3932126E0,-6.6608375E-1,1.4822761E0,-6.928493E-2,1.6634207E0,8.996844E-1,4.019914E0,-1.1480742E-1,-5.641163E-1,-2.6129976E-1,5.7591457E-2,1.3643636E0,-7.5527585E-1,-6.2089097E-2,-4.0096834E-1,7.507263E-3,-5.2778132E-2,-3.6935627E-1,3.072653E-1,-6.0119534E-1,7.7111614E-1,-7.819296E-3,-4.9989127E-2,-4.752451E-2,-7.4668154E-3,1.7149131E0,1.7297833E0,5.791424E-2,3.0904895E-1,-3.1465378E-2,-3.1870937E-1,1.8858895E-1,1.574322E0,-2.5361583E-3,1.6559875E-2,1.9129312E-2,-3.864253E-2,7.6196617E-3,2.459579E-2,6.1965054E-3,1.6163073E-2,-4.44643E-2,-8.660749E-3,-5.0848624E-4,2.916315E-2],"split_indices":[21,0,9,0,5,9,2,11,0,9,0,5,6,0,0,0,0,2,9,0,6,0,0,0,0,16,5,0,9,0,2,0,5,0,0,0,0,0,0,0,0,0,0,0,0],"split_type":[0,0,0,0,0,0,0,0,0,0,0,0,0,0,0,0,0,0,0,0,0,0,0,0,0,0,0,0,0,0,0,0,0,0,0,0,0,0,0,0,0,0,0,0,0],"sum_hessian":[1.9646974E3,4.02306E2,1.5623914E3,3.607855E2,4.15205E1,1.2803094E3,2.82082E2,3.6306625E1,5.2138734E0,1.1751671E3,1.0514232E2,2.7786658E2,4.2154484E0,2.9174805E1,7.1318226E0,2.079462E0,3.1344113E0,3.1528375E2,8.598833E2,2.3590764E2,4.195892E1,2.011462E0,2.2039866E0,4.3000064E0,2.8318162E0,2.0582336E2,1.0946039E2,1.0211279E2,7.577705E2,2.2619994E0,2.3364565E2,3.2133247E1,9.825672E0,1.572536E2,4.8569763E1,1.0734255E2,2.1178353E0,2.9710657E2,4.6066394E2,1.6070486E2,7.294078E1,5.5766063E0,2.655664E1,2.9945798E0,6.8310924E0],"tree_param":{"num_deleted":"0","num_feature":"23","num_nodes":"45","size_leaf_vector":"1"}},{"base_weights":[2.1517925E-2,-1.4672275E0,1.1064266E0,-6.800607E-2,-7.731616E-2,-6.8882376E-2,1.1764171E0,7.913113E-2,5.9265174E-2,-3.0237684E-1,4.4980325E-2,-5.065594E-2,3.518422E-2],"categories":[],"categories_nodes":[],"categories_segments":[],"categories_sizes":[],"default_left":[0,0,0,0,0,0,0,0,0,0,0,0,0],"id":18,"left_children":[1,3,5,-1,-1,-1,7,9,-1,11,-1,-1,-1],"loss_changes":[3.1536348E3,4.5787354E0,1.9797632E2,0E0,0E0,0E0,1.049707E1,3.4592845E0,0E0,6.0963655E0,0E0,0E0,0E0],"parents":[2147483647,0,0,1,1,2,2,6,6,7,7,9,9],"right_children":[2,4,6,-1,-1,-1,8,10,-1,12,-1,-1,-1],"split_conditions":[3.9513105E-1,-2.802401E-1,-6.6608375E-1,-6.800607E-2,-7.731616E-2,-6.8882376E-2,4.109748E-1,-3.6935627E-1,5.9265174E-2,9.4314814E-1,4.4980325E-2,-5.065594E-2,3.518422E-2],"split_indices":[1,9,0,0,0,0,1,2,0,0,0,0,0],"split_type":[0,0,0,0,0,0,0,0,0,0,0,0,0],"sum_hessian":[1.9505476E3,8.2205444E2,1.1284932E3,3.5746252E2,4.6459192E2,3.0373625E1,1.0981195E3,8.991575E0,1.0891279E3,6.4855013E0,2.506074E0,3.8546958E0,2.6308053E0],"tree_param":{"num_deleted":"0","num_feature":"23","num_nodes":"13","size_leaf_vector":"1"}},{"base_weights":[2.148169E-2,-1.4339997E0,1.097768E0,-6.679755E-2,-7.527238E-2,-6.7655765E-2,1.1679713E0,2.721882E-1,5.873428E-2,6.158918E-1,-3.001765E-2,4.4159446E-2,1.4808561E-2],"categories":[],"categories_nodes":[],"categories_segments":[],"categories_sizes":[],"default_left":[0,0,0,0,0,0,0,0,0,0,0,0,0],"id":19,"left_children":[1,3,5,-1,-1,-1,7,9,-1,11,-1,-1,-1],"loss_changes":[2.9302524E3,3.2751465E0,1.8659497E2,0E0,0E0,0E0,5.8269043E0,3.1287303E0,0E0,2.3341966E-1,0E0,0E0,0E0],"parents":[2147483647,0,0,1,1,2,2,6,6,7,7,9,9],"right_children":[2,4,6,-1,-1,-1,8,10,-1,12,-1,-1,-1],"split_conditions":[3.9513105E-1,-2.802401E-1,-6.6608375E-1,-6.679755E-2,-7.527238E-2,-6.7655765E-2,4.109748E-1,2.6433268E-1,5.873428E-2,-2.6129976E-1,-3.001765E-2,4.4159446E-2,1.4808561E-2],"split_indices":[1,9,0,0,0,0,1,8,0,9,0,0,0],"split_type":[0,0,0,0,0,0,0,0,0,0,0,0,0],"sum_hessian":[1.8685721E3,7.941727E2,1.0743994E3,3.4366107E2,4.505117E2,2.9369625E1,1.0450298E3,8.194613E0,1.0368352E3,6.1721025E0,2.0225115E0,2.2314146E0,3.940688E0],"tree_param":{"num_deleted":"0","num_feature":"23","num_nodes":"13","size_leaf_vector":"1"}},{"base_weights":[1.3778991E-2,-1.4036478E0,1.0890063E0,-6.570038E-2,-7.343256E-2,-6.567633E-2,1.1575357E0,2.9860443E-1,5.8224726E-2,-1.7118274E-1,4.797955E-2,-4.779841E-2,3.3761337E-2],"categories":[],"categories_nodes":[],"categories_segments":[],"categories_sizes":[],"default_left":[0,0,0,0,0,0,0,0,0,0,0,0,0],"id":20,"left_children":[1,3,5,-1,-1,-1,7,9,-1,11,-1,-1,-1],"loss_changes":[2.7501724E3,2.3273926E0,1.7045679E2,0E0,0E0,0E0,5.4727783E0,3.1878455E0,0E0,4.860668E0,0E0,0E0,0E0],"parents":[2147483647,0,0,1,1,2,2,6,6,7,7,9,9],"right_children":[2,4,6,-1,-1,-1,8,10,-1,12,-1,-1,-1],"split_conditions":[3.9513105E-1,-2.802401E-1,-6.6608375E-1,-6.570038E-2,-7.343256E-2,-6.567633E-2,4.109748E-1,-3.6935627E-1,5.8224726E-2,9.4314814E-1,4.797955E-2,-4.779841E-2,3.3761337E-2],"split_indices":[1,9,0,0,0,0,1,2,0,0,0,0,0],"split_type":[0,0,0,0,0,0,0,0,0,0,0,0,0],"sum_hessian":[1.8025266E3,7.773631E2,1.0251635E3,3.363231E2,4.4104004E2,2.7886324E1,9.9727716E2,8.48316E0,9.88794E2,5.3035E0,3.1796598E0,2.7460692E0,2.557431E0],"tree_param":{"num_deleted":"0","num_feature":"23","num_nodes":"13","size_leaf_vector":"1"}},{"base_weights":[2.8856408E-2,-1.3751955E0,1.0754368E0,-6.46854E-2,-7.175415E-2,-8.9477813E-1,1.1371925E0,1.0614154E-2,-9.894743E-1,2.181554E-2,5.7305902E-2,-1.0644813E0,-1.2783972E-2,4.634666E-2,-4.2869142E-1,-1.1633093E0,-4.3911532E-1,-5.661285E-2,2.0280635E-2,-2.609331E-2,-6.2357415E-2,-2.9089827E-2,-5.972974E-3],"categories":[],"categories_nodes":[],"categories_segments":[],"categories_sizes":[],"default_left":[0,0,0,0,0,0,0,0,0,0,0,0,0,0,0,0,0,0,0,0,0,0,0],"id":21,"left_children":[1,3,5,-1,-1,7,9,-1,11,13,-1,15,-1,-1,17,19,21,-1,-1,-1,-1,-1,-1],"loss_changes":[2.5628496E3,1.505249E0,1.2262659E2,0E0,0E0,3.5251217E0,9.508911E0,0E0,1.1758537E0,4.0372214E0,0E0,9.1142464E-1,0E0,0E0,4.340517E0,3.212967E-1,9.93036E-2,0E0,0E0,0E0,0E0,0E0,0E0],"parents":[2147483647,0,0,1,1,2,2,5,5,6,6,8,8,9,9,11,11,14,14,15,15,16,16],"right_children":[2,4,6,-1,-1,8,10,-1,12,14,-1,16,-1,-1,18,20,22,-1,-1,-1,-1,-1,-1],"split_conditions":[3.9513105E-1,-2.802401E-1,-1.3932126E0,-6.46854E-2,-7.175415E-2,-6.279196E-1,4.109748E-1,1.0614154E-2,1.008132E0,-6.667588E-1,5.7305902E-2,2.3239091E-2,-1.2783972E-2,4.634666E-2,3.2427338E-1,-1.0993332E0,6.9494355E-1,-5.661285E-2,2.0280635E-2,-2.609331E-2,-6.2357415E-2,-2.9089827E-2,-5.972974E-3],"split_indices":[1,9,21,0,0,3,1,0,4,6,0,15,0,0,4,6,1,0,0,0,0,0,0],"split_type":[0,0,0,0,0,0,0,0,0,0,0,0,0,0,0,0,0,0,0,0,0,0,0],"sum_hessian":[1.7420978E3,7.438149E2,9.982829E2,3.2536697E2,4.1844788E2,2.9880657E1,9.684022E2,2.1734805E0,2.7707178E1,7.8042297E0,9.60598E2,2.460516E1,3.1020176E0,2.3158574E0,5.488372E0,2.0366482E1,4.238678E0,2.848758E0,2.639614E0,3.3272693E0,1.7039213E1,2.1473022E0,2.0913758E0],"tree_param":{"num_deleted":"0","num_feature":"23","num_nodes":"23","size_leaf_vector":"1"}},{"base_weights":[2.7053272E-2,-1.3513411E0,1.068021E0,-6.374143E-2,-7.023821E-2,-6.449787E-2,1.1403248E0,3.1497794E-1,5.7371337E-2,-1.2309392E-1,4.7191635E-2,-4.155315E-2,3.290598E-2],"categories":[],"categories_nodes":[],"categories_segments":[],"categories_sizes":[],"default_left":[0,0,0,0,0,0,0,0,0,0,0,0,0],"id":22,"left_children":[1,3,5,-1,-1,-1,7,9,-1,11,-1,-1,-1],"loss_changes":[2.4175957E3,9.042969E-1,1.6512402E2,0E0,0E0,0E0,4.955078E0,2.801492E0,0E0,4.082138E0,0E0,0E0,0E0],"parents":[2147483647,0,0,1,1,2,2,6,6,7,7,9,9],"right_children":[2,4,6,-1,-1,-1,8,10,-1,12,-1,-1,-1],"split_conditions":[3.9513105E-1,-2.802401E-1,-6.6608375E-1,-6.374143E-2,-7.023821E-2,-6.449787E-2,4.109748E-1,-3.6935627E-1,5.7371337E-2,3.2427338E-1,4.7191635E-2,-4.155315E-2,3.290598E-2],"split_indices":[1,9,0,0,0,0,1,2,0,4,0,0,0],"split_type":[0,0,0,0,0,0,0,0,0,0,0,0,0],"sum_hessian":[1.6829089E3,7.239278E2,9.589811E2,3.086348E2,4.1529303E2,2.7988625E1,9.3099243E2,8.449703E0,9.225427E2,5.360628E0,3.0890749E0,2.8458202E0,2.514808E0],"tree_param":{"num_deleted":"0","num_feature":"23","num_nodes":"13","size_leaf_vector":"1"}},{"base_weights":[3.2852914E-2,3.4653997E-1,-1.2201687E0,3.9981574E-1,1.05278015E-1,-6.259387E-2,-8.1009847E-1,3.4222206E-1,5.502379E-2,5.8848985E-2,3.486717E-1,-6.6944933E-3,-8.751115E-1,1.5623295E-1,4.1115016E-1,7.183775E-2,-2.4465237E-2,5.205852E-1,2.989553E-3,-1.2679714E-2,-9.167591E-1,6.568963E-2,3.242421E-1,5.5261977E-2,3.2305273E-1,4.6476226E-2,3.9212525E-1,6.814249E-1,-1.8904763E-3,-1.7390622E-1,3.4557718E-1,-5.2838933E-2,-5.300487E-1,-2.5763712E-4,1.4521889E-2,-1.7034236E-2,1.7795548E-2,7.165391E-3,2.2183409E-2,3.957273E-3,-7.3189302E-3,-1.4828774E-2,3.1196658E-2,3.950867E-2,-7.179627E-8,-1.9470481E-2,1.6630154E-2,-1.6651006E-2,1.2307801E-2,2.9235307E-2,-0E0,-3.6071807E-2,-1.5431659E-4],"categories":[],"categories_nodes":[],"categories_segments":[],"categories_sizes":[],"default_left":[0,0,0,0,0,0,0,0,0,0,0,0,0,0,0,0,0,0,0,0,0,0,0,0,0,0,0,0,0,0,0,0,0,0,0,0,0,0,0,0,0,0,0,0,0,0,0,0,0,0,0,0,0],"id":23,"left_children":[1,3,5,7,9,-1,11,13,-1,15,17,-1,19,21,23,25,-1,27,29,-1,31,33,35,-1,37,39,41,43,45,47,49,-1,51,-1,-1,-1,-1,-1,-1,-1,-1,-1,-1,-1,-1,-1,-1,-1,-1,-1,-1,-1,-1],"loss_changes":[6.4164496E2,1.6690887E1,3.0294495E0,4.2612152E1,2.6269197E0,0E0,9.477577E-1,1.25613785E1,0E0,1.4267821E0,2.1781864E0,0E0,2.685318E-1,4.03935E0,4.3573677E1,1.5439254E0,0E0,2.1605296E0,9.0594935E-1,0E0,4.6398735E-1,2.8443904E0,2.0966148E0,0E0,1.3777542E1,1.1681008E0,2.466088E0,1.5001402E0,1.0047836E0,7.249863E-1,4.3920672E-1,0E0,7.324586E-1,0E0,0E0,0E0,0E0,0E0,0E0,0E0,0E0,0E0,0E0,0E0,0E0,0E0,0E0,0E0,0E0,0E0,0E0,0E0,0E0],"parents":[2147483647,0,0,1,1,2,2,3,3,4,4,6,6,7,7,9,9,10,10,12,12,13,13,14,14,15,15,17,17,18,18,20,20,21,21,22,22,24,24,25,25,26,26,27,27,28,28,29,29,30,30,32,32],"right_children":[2,4,6,8,10,-1,12,14,-1,16,18,-1,20,22,24,26,-1,28,30,-1,32,34,36,-1,38,40,42,44,46,48,50,-1,52,-1,-1,-1,-1,-1,-1,-1,-1,-1,-1,-1,-1,-1,-1,-1,-1,-1,-1,-1,-1],"split_conditions":[1.4130023E0,1.4822761E0,-6.0119534E-1,8.996844E-1,-1.1480742E-1,-6.259387E-2,-1.3759489E0,-2.6129976E-1,5.502379E-2,4.019914E0,-1.2663319E-2,-6.6944933E-3,-1.1585442E0,-3.6935627E-1,3.072653E-1,9.6595615E-1,-2.4465237E-2,-1.5348281E-1,2.2051913E-1,-1.2679714E-2,4.7230342E-1,1.7149131E0,-2.3225856E-1,5.5261977E-2,3.0904895E-1,3.1785172E-1,1.7931917E-1,1.2051704E0,9.520175E-2,7.206737E-1,7.611053E-1,-5.2838933E-2,9.882447E-1,-2.5763712E-4,1.4521889E-2,-1.7034236E-2,1.7795548E-2,7.165391E-3,2.2183409E-2,3.957273E-3,-7.3189302E-3,-1.4828774E-2,3.1196658E-2,3.950867E-2,-7.179627E-8,-1.9470481E-2,1.6630154E-2,-1.6651006E-2,1.2307801E-2,2.9235307E-2,-0E0,-3.6071807E-2,-1.5431659E-4],"split_indices":[22,9,0,9,11,0,6,9,0,2,3,0,4,2,9,3,0,7,6,0,3,16,0,0,9,2,0,8,8,0,6,0,4,0,0,0,0,0,0,0,0,0,0,0,0,0,0,0,0,0,0,0,0],"split_type":[0,0,0,0,0,0,0,0,0,0,0,0,0,0,0,0,0,0,0,0,0,0,0,0,0,0,0,0,0,0,0,0,0,0,0,0,0,0,0,0,0,0,0,0,0,0,0,0,0,0,0,0,0],"sum_hessian":[1.6305955E3,1.3047594E3,3.258361E2,1.0678776E3,2.3688179E2,3.0031738E2,2.5518719E1,9.882735E2,7.960411E1,2.0032169E2,3.65601E1,2.6415215E0,2.2877197E1,2.6849872E2,7.197748E2,1.9671187E2,3.6098073E0,2.3885965E1,1.2674137E1,2.03271E0,2.0844488E1,1.7576294E2,9.273579E1,7.963973E1,6.40135E2,1.836288E2,1.3083069E1,1.8177383E1,5.708582E0,8.49052E0,4.1836176E0,1.3841458E1,7.0030293E0,1.340435E2,4.1719433E1,3.6288195E0,8.9106964E1,2.5827008E2,3.8186493E2,1.579761E2,2.5652708E1,3.115659E0,9.96741E0,1.5664637E1,2.512747E0,2.7071102E0,3.001472E0,6.4809103E0,2.009609E0,2.0953815E0,2.088236E0,4.727306E0,2.2757235E0],"tree_param":{"num_deleted":"0","num_feature":"23","num_nodes":"53","size_leaf_vector":"1"}},{"base_weights":[2.9113904E-2,-1.3247424E0,1.0565898E0,-6.2093575E-2,-6.906133E-2,-6.259796E-2,1.1272521E0,1.4794889E-1,5.6829493E-2,-2.4340494E-1,4.4255506E-2,7.150384E-3,-3.0415807E-2],"categories":[],"categories_nodes":[],"categories_segments":[],"categories_sizes":[],"default_left":[0,0,0,0,0,0,0,0,0,0,0,0,0],"id":24,"left_children":[1,3,5,-1,-1,-1,7,9,-1,11,-1,-1,-1],"loss_changes":[2.214342E3,1.2373047E0,1.4903674E2,0E0,0E0,0E0,7.7390137E0,3.0348363E0,0E0,1.1112907E0,0E0,0E0,0E0],"parents":[2147483647,0,0,1,1,2,2,6,6,7,7,9,9],"right_children":[2,4,6,-1,-1,-1,8,10,-1,12,-1,-1,-1],"split_conditions":[3.9513105E-1,-2.802401E-1,-6.6608375E-1,-6.2093575E-2,-6.906133E-2,-6.259796E-2,4.109748E-1,-3.6935627E-1,5.6829493E-2,-8.675077E-1,4.4255506E-2,7.150384E-3,-3.0415807E-2],"split_indices":[1,9,0,0,0,0,1,2,0,3,0,0,0],"split_type":[0,0,0,0,0,0,0,0,0,0,0,0,0],"sum_hessian":[1.589857E3,6.858105E2,9.0404663E2,2.8801086E2,3.9779962E2,2.6311543E1,8.7773505E2,8.550477E0,8.691846E2,5.9342017E0,2.6162748E0,3.0444398E0,2.8897622E0],"tree_param":{"num_deleted":"0","num_feature":"23","num_nodes":"13","size_leaf_vector":"1"}},{"base_weights":[8.920499E-3,-1.3044773E0,1.047355E0,-6.1354637E-2,-6.776055E-2,-6.219871E-2,1.1182908E0,1.9880527E-1,5.639826E-2,-1.5350464E-1,4.4218373E-2,3.0974848E-2,-3.1524654E-2],"categories":[],"categories_nodes":[],"categories_segments":[],"categories_sizes":[],"default_left":[0,0,0,0,0,0,0,0,0,0,0,0,0],"id":25,"left_children":[1,3,5,-1,-1,-1,7,9,-1,11,-1,-1,-1],"loss_changes":[2.0827986E3,7.258301E-1,1.4000287E2,0E0,0E0,0E0,7.00708E0,2.6099076E0,0E0,3.0915034E0,0E0,0E0,0E0],"parents":[2147483647,0,0,1,1,2,2,6,6,7,7,9,9],"right_children":[2,4,6,-1,-1,-1,8,10,-1,12,-1,-1,-1],"split_conditions":[3.9513105E-1,-2.802401E-1,-6.6608375E-1,-6.1354637E-2,-6.776055E-2,-6.219871E-2,4.109748E-1,-3.6935627E-1,5.639826E-2,-6.667588E-1,4.4218373E-2,3.0974848E-2,-3.1524654E-2],"split_indices":[1,9,0,0,0,0,1,2,0,6,0,0,0],"split_type":[0,0,0,0,0,0,0,0,0,0,0,0,0],"sum_hessian":[1.5251323E3,6.732555E2,8.518769E2,2.773575E2,3.95898E2,2.5041836E1,8.26835E2,8.941056E0,8.17894E2,6.3222704E0,2.6187863E0,2.218531E0,4.1037393E0],"tree_param":{"num_deleted":"0","num_feature":"23","num_nodes":"13","size_leaf_vector":"1"}},{"base_weights":[1.4136674E-2,-1.2843045E0,1.039458E0,-6.0658325E-2,-6.657125E-2,-6.1119266E-2,1.1106508E0,1.7579833E-1,5.6035586E-2,-1.5431604E-1,4.2593297E-2,-5.9979093E-1,2.979708E-2,1.5659219E-3,-5.2951057E-2],"categories":[],"categories_nodes":[],"categories_segments":[],"categories_sizes":[],"default_left":[0,0,0,0,0,0,0,0,0,0,0,0,0,0,0],"id":26,"left_children":[1,3,5,-1,-1,-1,7,9,-1,11,-1,13,-1,-1,-1],"loss_changes":[1.9626941E3,3.1066895E-1,1.3400146E2,0E0,0E0,0E0,7.1904907E0,2.3887334E0,0E0,2.8086977E0,0E0,1.6381377E0,0E0,0E0,0E0],"parents":[2147483647,0,0,1,1,2,2,6,6,7,7,9,9,11,11],"right_children":[2,4,6,-1,-1,-1,8,10,-1,12,-1,14,-1,-1,-1],"split_conditions":[3.9513105E-1,-2.802401E-1,-6.6608375E-1,-6.0658325E-2,-6.657125E-2,-6.1119266E-2,4.109748E-1,-3.6935627E-1,5.6035586E-2,9.4314814E-1,4.2593297E-2,6.706169E-1,2.979708E-2,1.5659219E-3,-5.2951057E-2],"split_indices":[1,9,0,0,0,0,1,2,0,0,0,0,0,0,0],"split_type":[0,0,0,0,0,0,0,0,0,0,0,0,0,0,0],"sum_hessian":[1.472263E3,6.494569E2,8.228061E2,2.7028046E2,3.7917645E2,2.4571709E1,7.982344E2,8.801619E0,7.8943274E2,6.33309E0,2.4685285E0,4.1831393E0,2.1499505E0,2.062601E0,2.1205382E0],"tree_param":{"num_deleted":"0","num_feature":"23","num_nodes":"15","size_leaf_vector":"1"}},{"base_weights":[1.3997626E-2,-6.3339576E-2,1.034089E0,-7.364384E-1,1.0932915E0,7.308315E-3,-8.2148767E-1,2.5767377E-1,5.5114575E-2,-1.174412E-2,-8.832121E-1,-5.478456E-2,4.2621866E-2,-9.7440124E-1,-9.124236E-3,2.0776229E-2,-2.0795066E-2,-2.1189472E-2,-5.188292E-2],"categories":[],"categories_nodes":[],"categories_segments":[],"categories_sizes":[],"default_left":[0,0,0,0,0,0,0,0,0,0,0,0,0,0,0,0,0,0,0],"id":27,"left_children":[1,-1,3,5,7,-1,9,11,-1,-1,13,15,-1,17,-1,-1,-1,-1,-1],"loss_changes":[1.8564242E3,0E0,8.375183E1,2.149496E0,5.3395996E0,0E0,5.531025E-1,1.9075655E0,0E0,0E0,1.0664425E0,1.3808359E0,0E0,5.760765E-2,0E0,0E0,0E0,0E0,0E0],"parents":[2147483647,0,0,2,2,3,3,4,4,6,6,7,7,10,10,11,11,13,13],"right_children":[2,-1,4,6,8,-1,10,12,-1,-1,14,16,-1,18,-1,-1,-1,-1,-1],"split_conditions":[3.9513105E-1,-6.3339576E-2,-1.3932126E0,-5.9245193E-1,4.109748E-1,7.308315E-3,-1.3759489E0,-3.6935627E-1,5.5114575E-2,-1.174412E-2,1.6634207E0,-4.8494148E-1,4.2621866E-2,-7.919988E-1,-9.124236E-3,2.0776229E-2,-2.0795066E-2,-2.1189472E-2,-5.188292E-2],"split_indices":[1,0,21,3,1,0,6,2,0,0,5,8,0,5,0,0,0,0,0],"split_type":[0,0,0,0,0,0,0,0,0,0,0,0,0,0,0,0,0,0,0],"sum_hessian":[1.4189053E3,6.289185E2,7.8998676E2,2.513593E1,7.648508E2,2.0427496E0,2.309318E1,8.584109E0,7.562667E2,2.8103306E0,2.0282848E1,6.112611E0,2.4714983E0,1.747542E1,2.807429E0,2.4692018E0,3.6434088E0,2.7570882E0,1.4718331E1],"tree_param":{"num_deleted":"0","num_feature":"23","num_nodes":"19","size_leaf_vector":"1"}},{"base_weights":[2.5981829E-2,-6.2495142E-2,1.0291574E0,-6.0069334E-2,1.096863E0,7.790524E-2,5.5387355E-2,-2.409825E-1,3.977308E-2,-3.6339484E-2,2.8094638E-2],"categories":[],"categories_nodes":[],"categories_segments":[],"categories_sizes":[],"default_left":[0,0,0,0,0,0,0,0,0,0,0],"id":28,"left_children":[1,-1,3,-1,5,7,-1,9,-1,-1,-1],"loss_changes":[1.7314349E3,0E0,1.15682434E2,0E0,7.953308E0,2.29441E0,0E0,3.1026247E0,0E0,0E0,0E0],"parents":[2147483647,0,0,2,2,4,4,5,5,7,7],"right_children":[2,-1,4,-1,6,8,-1,10,-1,-1,-1],"split_conditions":[3.9513105E-1,-6.2495142E-2,-6.6608375E-1,-6.0069334E-2,4.109748E-1,-3.6935627E-1,5.5387355E-2,9.3669426E-1,3.977308E-2,-3.6339484E-2,2.8094638E-2],"split_indices":[1,0,0,0,1,2,0,0,0,0,0],"split_type":[0,0,0,0,0,0,0,0,0,0,0],"sum_hessian":[1.3507631E3,5.9441425E2,7.563489E2,2.1744991E1,7.346039E2,7.9470773E0,7.266568E2,5.8652945E0,2.081783E0,3.7908373E0,2.0744572E0],"tree_param":{"num_deleted":"0","num_feature":"23","num_nodes":"11","size_leaf_vector":"1"}},{"base_weights":[7.1533336E-3,-1.1506685E0,3.014004E-1,-5.8781993E-2,-9.0725046E-1,-5.757025E-2,3.086054E-1,-1.0655518E-2,-9.6850365E-1,3.546309E-1,9.841642E-2,-5.208365E-2,-1.9301467E-2,3.0091333E-1,5.313163E-2,1.3487437E-1,-1.0131615E-1,3.6895776E-1,1.290343E-1,1.6725738E-1,-1.5467367E-1,-5.181014E-1,9.706385E-3,1.23121E-2,5.415366E-2,1.0352708E-2,-5.360022E-4,1.0074362E-2,-3.3849644E-4,7.6576634E-3,-3.3003587E-2,-1.1536874E-2,-3.4503803E-2,4.7967075E-3,-2.1849936E-2],"categories":[],"categories_nodes":[],"categories_segments":[],"categories_sizes":[],"default_left":[0,0,0,0,0,0,0,0,0,0,0,0,0,0,0,0,0,0,0,0,0,0,0,0,0,0,0,0,0,0,0,0,0,0,0],"id":29,"left_children":[1,3,5,-1,7,-1,9,-1,11,13,15,-1,-1,17,-1,19,21,23,25,27,29,31,33,-1,-1,-1,-1,-1,-1,-1,-1,-1,-1,-1,-1],"loss_changes":[4.4170825E2,3.2199097E-1,1.1094917E1,0E0,9.168072E-1,0E0,9.882149E0,0E0,5.8086395E-1,3.1644402E1,1.3770103E0,0E0,0E0,9.095657E0,0E0,1.5159965E0,1.3966758E0,4.886409E1,2.4738882E0,8.762913E-1,2.669208E0,6.0177922E-2,9.1967696E-1,0E0,0E0,0E0,0E0,0E0,0E0,0E0,0E0,0E0,0E0,0E0,0E0],"parents":[2147483647,0,0,1,1,2,2,4,4,6,6,8,8,9,9,10,10,13,13,15,15,16,16,17,17,18,18,19,19,20,20,21,21,22,22],"right_children":[2,4,6,-1,8,-1,10,-1,12,14,16,-1,-1,18,-1,20,22,24,26,28,30,32,34,-1,-1,-1,-1,-1,-1,-1,-1,-1,-1,-1,-1],"split_conditions":[-1.3932126E0,-6.6608375E-1,-6.3271254E-1,-5.8781993E-2,-7.919988E-1,-5.757025E-2,1.4822761E0,-1.0655518E-2,1.6634207E0,8.996844E-1,1.3643636E0,-5.208365E-2,-1.9301467E-2,8.9477074E-1,5.313163E-2,1.5303383E0,2.5588867E-1,3.0904895E-1,3.7280756E-1,1.7481091E0,2.010243E-1,9.520175E-2,1.7149131E0,1.23121E-2,5.415366E-2,1.0352708E-2,-5.360022E-4,1.0074362E-2,-3.3849644E-4,7.6576634E-3,-3.3003587E-2,-1.1536874E-2,-3.4503803E-2,4.7967075E-3,-2.1849936E-2],"split_indices":[21,0,0,0,5,0,9,0,5,9,5,0,0,9,0,8,0,9,8,12,6,8,16,0,0,0,0,0,0,0,0,0,0,0,0],"split_type":[0,0,0,0,0,0,0,0,0,0,0,0,0,0,0,0,0,0,0,0,0,0,0,0,0,0,0,0,0,0,0,0,0,0,0],"sum_hessian":[1.2947587E3,2.6171106E2,1.0330476E3,2.3351503E2,2.819604E1,4.2458014E0,1.0288018E3,2.7819426E0,2.5414097E1,8.4303723E2,1.8576451E2,2.1725004E1,3.6890922E0,7.8504083E2,5.7996407E1,1.5778821E2,2.7976297E1,5.611581E2,2.2388277E2,1.426068E2,1.5181402E1,5.302916E0,2.2673382E1,4.8013504E2,8.102302E1,1.438246E2,8.0058174E1,1.1951578E2,2.3091024E1,9.745023E0,5.4363794E0,3.0798178E0,2.2230983E0,1.985069E1,2.82269E0],"tree_param":{"num_deleted":"0","num_feature":"23","num_nodes":"35","size_leaf_vector":"1"}},{"base_weights":[1.3044097E-2,-6.1671305E-2,1.0201335E0,-5.8672857E-2,1.0887122E0,1.21139705E-1,5.500126E-2,3.85586E-2,-3.585755E-1,1.5595945E-2,-4.3489005E-2],"categories":[],"categories_nodes":[],"categories_segments":[],"categories_sizes":[],"default_left":[0,0,0,0,0,0,0,0,0,0,0],"id":30,"left_children":[1,-1,3,-1,5,7,-1,-1,9,-1,-1],"loss_changes":[1.6179689E3,0E0,1.0852124E2,0E0,7.3182373E0,3.1935434E0,0E0,0E0,2.3494873E0,0E0,0E0],"parents":[2147483647,0,0,2,2,4,4,5,5,8,8],"right_children":[2,-1,4,-1,6,8,-1,-1,10,-1,-1],"split_conditions":[3.9513105E-1,-6.1671305E-2,-6.6608375E-1,-5.8672857E-2,4.109748E-1,-4.6338037E-1,5.500126E-2,3.85586E-2,-4.8494148E-1,1.5595945E-2,-4.3489005E-2],"split_indices":[1,0,0,0,1,6,0,0,8,0,0],"split_type":[0,0,0,0,0,0,0,0,0,0,0],"sum_hessian":[1.2869175E3,5.7496356E2,7.119539E2,2.1050577E1,6.909034E2,8.222195E0,6.8268115E2,3.321853E0,4.900342E0,2.2039142E0,2.6964278E0],"tree_param":{"num_deleted":"0","num_feature":"23","num_nodes":"11","size_leaf_vector":"1"}},{"base_weights":[1.4166141E-2,-6.0977973E-2,1.0126523E0,-1.1303536E0,1.0845789E0,-5.887845E-2,-2.2729842E-2,1.539215E-1,5.477653E-2,-2.386871E-1,4.21738E-2,-5.2101236E-2,2.4146786E-2],"categories":[],"categories_nodes":[],"categories_segments":[],"categories_sizes":[],"default_left":[0,0,0,0,0,0,0,0,0,0,0,0,0],"id":31,"left_children":[1,-1,3,5,7,-1,-1,9,-1,11,-1,-1,-1],"loss_changes":[1.5253649E3,0E0,1.06717896E2,2.4785995E-2,6.461487E0,0E0,0E0,2.6924105E0,0E0,4.2738395E0,0E0,0E0,0E0],"parents":[2147483647,0,0,2,2,3,3,4,4,7,7,9,9],"right_children":[2,-1,4,6,8,-1,-1,10,-1,12,-1,-1,-1],"split_conditions":[3.9513105E-1,-6.0977973E-2,-6.3271254E-1,1.6634207E0,4.109748E-1,-5.887845E-2,-2.2729842E-2,-3.6935627E-1,5.477653E-2,3.2427338E-1,4.21738E-2,-5.2101236E-2,2.4146786E-2],"split_indices":[1,0,0,5,1,0,0,2,0,4,0,0,0],"split_type":[0,0,0,0,0,0,0,0,0,0,0,0,0],"sum_hessian":[1.2362778E3,5.5285315E2,6.8342474E2,2.167015E1,6.617546E2,1.9422512E1,2.2476382E0,7.9781313E0,6.537764E2,5.407894E0,2.5702372E0,2.4145267E0,2.9933674E0],"tree_param":{"num_deleted":"0","num_feature":"23","num_nodes":"13","size_leaf_vector":"1"}},{"base_weights":[2.3383375E-2,-6.03274E-2,1.0113173E0,-5.7113882E-2,1.0787613E0,2.0195758E-1,5.4462608E-2,-1.2020559E-1,4.3062586E-2,2.0954141E-2,-4.0651154E-2],"categories":[],"categories_nodes":[],"categories_segments":[],"categories_sizes":[],"default_left":[0,0,0,0,0,0,0,0,0,0,0],"id":32,"left_children":[1,-1,3,-1,5,7,-1,9,-1,-1,-1],"loss_changes":[1.433295E3,0E0,9.624432E1,0E0,5.4907227E0,2.0566633E0,0E0,2.8902936E0,0E0,0E0,0E0],"parents":[2147483647,0,0,2,2,4,4,5,5,7,7],"right_children":[2,-1,4,-1,6,8,-1,10,-1,-1,-1],"split_conditions":[3.9513105E-1,-6.03274E-2,-6.6608375E-1,-5.7113882E-2,4.109748E-1,9.4314814E-1,5.4462608E-2,7.3365134E-1,4.3062586E-2,2.0954141E-2,-4.0651154E-2],"split_indices":[1,0,0,0,1,0,0,0,0,0,0],"split_type":[0,0,0,0,0,0,0,0,0,0,0],"sum_hessian":[1.1775903E3,5.2440643E2,6.531839E2,1.9305655E1,6.338783E2,7.8466525E0,6.260316E2,5.7183747E0,2.128278E0,3.3564684E0,2.3619063E0],"tree_param":{"num_deleted":"0","num_feature":"23","num_nodes":"11","size_leaf_vector":"1"}},{"base_weights":[9.059631E-3,-5.9726775E-2,1.0004267E0,-1.1039679E0,1.0726362E0,-5.7438325E-2,-2.0951299E-2,1.0755893E-1,5.426727E-2,-2.6685777E-1,4.3285858E-2,1.9083573E-2,-5.3419303E-2],"categories":[],"categories_nodes":[],"categories_segments":[],"categories_sizes":[],"default_left":[0,0,0,0,0,0,0,0,0,0,0,0,0],"id":33,"left_children":[1,-1,3,5,7,-1,-1,9,-1,11,-1,-1,-1],"loss_changes":[1.3497461E3,0E0,9.544525E1,7.0495605E-3,7.127075E0,0E0,0E0,2.849986E0,0E0,3.964847E0,0E0,0E0,0E0],"parents":[2147483647,0,0,2,2,3,3,4,4,7,7,9,9],"right_children":[2,-1,4,6,8,-1,-1,10,-1,12,-1,-1,-1],"split_conditions":[3.9513105E-1,-5.9726775E-2,-6.3271254E-1,1.7130456E0,4.109748E-1,-5.7438325E-2,-2.0951299E-2,9.4314814E-1,5.426727E-2,7.3365134E-1,4.3285858E-2,1.9083573E-2,-5.3419303E-2],"split_indices":[1,0,0,5,1,0,0,0,0,0,0,0,0],"split_type":[0,0,0,0,0,0,0,0,0,0,0,0,0],"sum_hessian":[1.129209E3,5.098755E2,6.193335E2,2.0026636E1,5.993069E2,1.8024569E1,2.0020673E0,8.015053E0,5.912918E2,5.710861E0,2.304191E0,3.3772962E0,2.333565E0],"tree_param":{"num_deleted":"0","num_feature":"23","num_nodes":"13","size_leaf_vector":"1"}},{"base_weights":[2.1951044E-2,-5.9169352E-2,1.0034207E0,-5.6063093E-2,1.070649E0,2.3726968E-1,5.404647E-2,-1.2488501E-2,4.4559127E-1,3.843478E-2,-6.2685213E-3],"categories":[],"categories_nodes":[],"categories_segments":[],"categories_sizes":[],"default_left":[0,0,0,0,0,0,0,0,0,0,0],"id":34,"left_children":[1,-1,3,-1,5,7,-1,-1,9,-1,-1],"loss_changes":[1.284103E3,0E0,8.6660706E1,0E0,4.585327E0,9.906415E-1,0E0,0E0,1.3484232E0,0E0,0E0],"parents":[2147483647,0,0,2,2,4,4,5,5,8,8],"right_children":[2,-1,4,-1,6,8,-1,-1,10,-1,-1],"split_conditions":[3.9513105E-1,-5.9169352E-2,-6.6608375E-1,-5.6063093E-2,4.109748E-1,-7.876836E-1,5.404647E-2,-1.2488501E-2,1.5078092E0,3.843478E-2,-6.2685213E-3],"split_indices":[1,0,0,0,1,5,0,0,5,0,0],"split_type":[0,0,0,0,0,0,0,0,0,0,0],"sum_hessian":[1.0834722E3,4.8613925E2,5.973329E2,1.7794386E1,5.795385E2,7.473847E0,5.720647E2,2.0356543E0,5.4381924E0,3.3635836E0,2.0746088E0],"tree_param":{"num_deleted":"0","num_feature":"23","num_nodes":"11","size_leaf_vector":"1"}},{"base_weights":[2.5331996E-2,-1.0806814E0,2.9266027E-1,-5.5989403E-2,-7.260368E-1,-5.276686E-2,3.006072E-1,-5.2959654E-3,-7.9516786E-1,1.3013062E-1,3.451317E-1,-7.6611713E-3,-8.530128E-1,-2.1668542E-2,2.2515182E-1,5.2053213E-2,2.8894985E-1,-1.6252203E-2,-9.279845E-1,-8.434027E-2,3.276684E-1,2.6146373E-1,-1.6030492E-1,1.0304686E-1,3.5906917E-1,-5.3017255E-2,-1.7025525E-2,3.6147416E-3,-8.060235E-3,3.0187894E-2,9.109935E-4,1.5766554E-2,-0E0,3.023434E-3,-2.832054E-2,-9.888335E-3,8.398269E-3,5.258171E-2,1.2311477E-2],"categories":[],"categories_nodes":[],"categories_segments":[],"categories_sizes":[],"default_left":[0,0,0,0,0,0,0,0,0,0,0,0,0,0,0,0,0,0,0,0,0,0,0,0,0,0,0,0,0,0,0,0,0,0,0,0,0,0,0],"id":35,"left_children":[1,3,5,-1,7,-1,9,-1,11,13,15,-1,17,19,21,-1,23,-1,25,27,29,31,33,35,37,-1,-1,-1,-1,-1,-1,-1,-1,-1,-1,-1,-1,-1,-1],"loss_changes":[3.0976376E2,1.8305664E0,9.282562E0,0E0,8.266964E-1,0E0,6.282387E0,0E0,5.377016E-1,2.5638154E0,2.5561409E1,0E0,3.1073093E-1,1.4978031E0,1.5739379E0,0E0,7.955883E0,0E0,7.129688E-1,7.298813E-1,8.106766E-1,1.4397006E0,9.584825E-1,3.3636985E0,3.4544933E1,0E0,0E0,0E0,0E0,0E0,0E0,0E0,0E0,0E0,0E0,0E0,0E0,0E0,0E0],"parents":[2147483647,0,0,1,1,2,2,4,4,6,6,8,8,9,9,10,10,12,12,13,13,14,14,16,16,18,18,19,19,20,20,21,21,22,22,23,23,24,24],"right_children":[2,4,6,-1,8,-1,10,-1,12,14,16,-1,18,20,22,-1,24,-1,26,28,30,32,34,36,38,-1,-1,-1,-1,-1,-1,-1,-1,-1,-1,-1,-1,-1,-1],"split_conditions":[-1.3932126E0,-6.6608375E-1,-6.3271254E-1,-5.5989403E-2,-7.919988E-1,-5.276686E-2,-2.6129976E-1,-5.2959654E-3,-1.0926191E0,-6.423963E-1,3.072653E-1,-7.6611713E-3,-1.0993332E0,-2.4189645E-1,1.6045115E0,5.2053213E-2,3.0904895E-1,-1.6252203E-2,7.545975E-1,-1.3874356E0,-7.249205E-1,1.8171654E0,4.5234945E-1,-7.909527E-1,8.9477074E-1,-5.3017255E-2,-1.7025525E-2,3.6147416E-3,-8.060235E-3,3.0187894E-2,9.109935E-4,1.5766554E-2,-0E0,3.023434E-3,-2.832054E-2,-9.888335E-3,8.398269E-3,5.258171E-2,1.2311477E-2],"split_indices":[21,0,0,0,5,0,9,0,3,3,9,0,6,2,5,0,9,0,3,3,8,17,6,5,9,0,0,0,0,0,0,0,0,0,0,0,0,0,0],"split_type":[0,0,0,0,0,0,0,0,0,0,0,0,0,0,0,0,0,0,0,0,0,0,0,0,0,0,0,0,0,0,0,0,0,0,0,0,0,0,0],"sum_hessian":[1.0458689E3,2.0291888E2,8.4295E2,1.8056818E2,2.2350708E1,4.0941906E0,8.3885583E2,2.6408162E0,1.9709892E1,1.749958E2,6.6386005E2,2.073747E0,1.7636145E1,6.726213E1,1.07733665E2,4.814694E1,6.157131E2,3.0222337E0,1.4613911E1,5.7916607E1,9.345525E0,9.898949E1,8.744178E0,1.6969832E2,4.4601477E2,1.1130919E1,3.4829912E0,1.8656551E1,3.9260056E1,4.2655635E0,5.0799613E0,8.222441E1,1.6765078E1,6.056506E0,2.6876724E0,2.9485292E1,1.4021303E2,6.1198246E1,3.8481653E2],"tree_param":{"num_deleted":"0","num_feature":"23","num_nodes":"39","size_leaf_vector":"1"}},{"base_weights":[2.1897364E-2,-5.8610857E-2,9.938725E-1,-1.0668719E0,1.0609764E0,-5.6061674E-2,-2.0667417E-2,1.0658655E-1,5.3744227E-2,-1.941796E-1,3.8895976E-2,2.7914677E-2,-3.2344546E-2],"categories":[],"categories_nodes":[],"categories_segments":[],"categories_sizes":[],"default_left":[0,0,0,0,0,0,0,0,0,0,0,0,0],"id":36,"left_children":[1,-1,3,5,7,-1,-1,9,-1,11,-1,-1,-1],"loss_changes":[1.1904425E3,0E0,7.932678E1,3.2663345E-2,7.043701E0,0E0,0E0,2.044259E0,0E0,2.7453847E0,0E0,0E0,0E0],"parents":[2147483647,0,0,2,2,3,3,4,4,7,7,9,9],"right_children":[2,-1,4,6,8,-1,-1,10,-1,12,-1,-1,-1],"split_conditions":[3.9513105E-1,-5.8610857E-2,-6.3271254E-1,2.3239091E-2,4.109748E-1,-5.6061674E-2,-2.0667417E-2,-3.6935627E-1,5.3744227E-2,-6.667588E-1,3.8895976E-2,2.7914677E-2,-3.2344546E-2],"split_indices":[1,0,0,15,1,0,0,2,0,6,0,0,0],"split_type":[0,0,0,0,0,0,0,0,0,0,0,0,0],"sum_hessian":[1.02368085E3,4.5921097E2,5.644699E2,1.72843E1,5.471856E2,1.5154983E1,2.129317E0,8.08717E0,5.3909845E2,5.972989E0,2.114181E0,2.0730913E0,3.8998978E0],"tree_param":{"num_deleted":"0","num_feature":"23","num_nodes":"13","size_leaf_vector":"1"}},{"base_weights":[1.838797E-2,-5.8105893E-2,9.8621523E-1,-6.424261E-1,1.0452021E0,-2.8846734E-3,-7.0181745E-1,4.2486254E-2,5.2976098E-2,-4.579946E-2,-4.1536772E-1,2.820774E-2,-2.1502899E-1,8.543329E-4,-5.571719E-1,-2.1103315E-2,-0E0,-3.4685094E-2,-5.2122013E-3],"categories":[],"categories_nodes":[],"categories_segments":[],"categories_sizes":[],"default_left":[0,0,0,0,0,0,0,0,0,0,0,0,0,0,0,0,0,0,0],"id":37,"left_children":[1,-1,3,5,7,-1,9,11,-1,-1,13,-1,15,-1,17,-1,-1,-1,-1],"loss_changes":[1.1128143E3,0E0,5.213275E1,5.5271673E-1,7.2680054E0,0E0,5.444908E-1,1.2872368E0,0E0,0E0,6.404606E-1,0E0,2.8190306E-1,0E0,2.986114E-1,0E0,0E0,0E0,0E0],"parents":[2147483647,0,0,2,2,3,3,4,4,6,6,7,7,10,10,12,12,14,14],"right_children":[2,-1,4,6,8,-1,10,12,-1,-1,14,-1,16,-1,18,-1,-1,-1,-1],"split_conditions":[3.9513105E-1,-5.8105893E-2,-1.3932126E0,-3.6444515E-1,4.109748E-1,-2.8846734E-3,-6.5778434E-2,-6.667588E-1,5.2976098E-2,-4.579946E-2,1.9275555E-1,2.820774E-2,3.2062766E-1,8.543329E-4,9.882447E-1,-2.1103315E-2,-0E0,-3.4685094E-2,-5.2122013E-3],"split_indices":[1,0,21,3,1,0,4,6,0,0,4,0,6,0,4,0,0,0,0],"split_type":[0,0,0,0,0,0,0,0,0,0,0,0,0,0,0,0,0,0,0],"sum_hessian":[9.7200726E2,4.3775375E2,5.3425354E2,1.826854E1,5.15985E2,2.0214722E0,1.6247068E1,7.4191966E0,5.0856577E2,7.839114E0,8.407953E0,2.1867967E0,5.2324E0,2.1192555E0,6.288698E0,2.200143E0,3.0322566E0,4.2539983E0,2.0346994E0],"tree_param":{"num_deleted":"0","num_feature":"23","num_nodes":"19","size_leaf_vector":"1"}},{"base_weights":[2.2972334E-2,-5.762876E-2,9.885223E-1,-5.4068156E-2,1.0523973E0,2.1275403E-1,5.3282466E-2,-9.780676E-2,4.0315382E-2,-2.915909E-2,2.8851483E-2],"categories":[],"categories_nodes":[],"categories_segments":[],"categories_sizes":[],"default_left":[0,0,0,0,0,0,0,0,0,0,0],"id":38,"left_children":[1,-1,3,-1,5,7,-1,9,-1,-1,-1],"loss_changes":[1.0637852E3,0E0,6.9173706E1,0E0,5.2061768E0,1.8330069E0,0E0,2.5566733E0,0E0,0E0,0E0],"parents":[2147483647,0,0,2,2,4,4,5,5,7,7],"right_children":[2,-1,4,-1,6,8,-1,10,-1,-1,-1],"split_conditions":[3.9513105E-1,-5.762876E-2,-6.6608375E-1,-5.4068156E-2,4.109748E-1,-3.6935627E-1,5.3282466E-2,9.4314814E-1,4.0315382E-2,-2.915909E-2,2.8851483E-2],"split_indices":[1,0,0,0,1,2,0,0,0,0,0],"split_type":[0,0,0,0,0,0,0,0,0,0,0],"sum_hessian":[9.3522516E2,4.216154E2,5.1360974E2,1.4851404E1,4.9875836E2,8.13174E0,4.9062662E2,5.776227E0,2.3555124E0,3.5249288E0,2.2512982E0],"tree_param":{"num_deleted":"0","num_feature":"23","num_nodes":"11","size_leaf_vector":"1"}},{"base_weights":[1.644369E-2,-5.7200786E-2,9.774093E-1,-5.44707E-2,1.0477705E0,8.48912E-2,5.3167243E-2,3.1334978E-2,-2.2884333E-1,1.4736744E-2,-4.1303616E-2],"categories":[],"categories_nodes":[],"categories_segments":[],"categories_sizes":[],"default_left":[0,0,0,0,0,0,0,0,0,0,0],"id":39,"left_children":[1,-1,3,-1,5,7,-1,-1,9,-1,-1],"loss_changes":[9.928898E2,0E0,7.197159E1,0E0,6.8672485E0,1.6613282E0,0E0,0E0,2.2110991E0,0E0,0E0],"parents":[2147483647,0,0,2,2,4,4,5,5,8,8],"right_children":[2,-1,4,-1,6,8,-1,-1,10,-1,-1],"split_conditions":[3.9513105E-1,-5.7200786E-2,-6.3271254E-1,-5.44707E-2,4.109748E-1,-4.6338037E-1,5.3167243E-2,3.1334978E-2,-1.8279402E-1,1.4736744E-2,-4.1303616E-2],"split_indices":[1,0,0,0,1,6,0,0,8,0,0],"split_type":[0,0,0,0,0,0,0,0,0,0,0],"sum_hessian":[8.883673E2,4.0228024E2,4.8608707E2,1.5479546E1,4.706075E2,7.6956806E0,4.6291183E2,2.5731447E0,5.1225357E0,2.9102423E0,2.2122931E0],"tree_param":{"num_deleted":"0","num_feature":"23","num_nodes":"11","size_leaf_vector":"1"}}]},"name":"gbtree"},"learner_model_param":{"base_score":"6.6666573E-1","boost_from_average":"1","num_class":"0","num_feature":"23","num_target":"1"},"objective":{"name":"binary:logistic","reg_loss_param":{"scale_pos_weight":"2.06077838"}}},"version":[3,0,2]}